{"learner":{"attributes":{"best_iteration":"29","best_ntree_limit":"30"},"feature_names":[],"feature_types":[],"gradient_booster":{"model":{"gbtree_model_param":{"num_trees":"30","size_leaf_vector":"0"},"tree_info":[0,0,0,0,0,0,0,0,0,0,0,0,0,0,0,0,0,0,0,0,0,0,0,0,0,0,0,0,0,0],"trees":[{"base_weights":[-8.177272E-9,-1E0,1E0,-1E0,1E0,1E0,-8.2270813E-1,-7.6828104E-1,-1E0,1E0,-3E-1,1E0,-9.1125953E-1,-2.5504145E-1,-1E0,-1E0,3.2038912E-1,-7.408577E-1,-3E-1,1E0,-3E-1,1E0,-1.4252801E-1,-4.2120162E-1,-1E0,2.6773545E-1,-7.340723E-1,-3.7781197E-1,-1E0,-1E0,3E-1,9.085336E-1,-1E0,-1E0,8.729885E-1,1E0,-3E-1,1E0,-1E0,3.6821422E-1,-1E0,-6.7465015E-2,-1E0,-3E-1,2.606039E-1,4.3773374E-1,-9.48632E-1,-2.0521249E-1,-1E0,-1E0,3E-1,-6.9217175E-1,-3E-1,-3E-1,-1.2592463E-1,-3E-1,3E-1,1.5072618E-1,-3E-1,1.9314767E-1,-3E-1,3E-1,-3E-1,3E-1,1.2533896E-1,3E-1,4.428869E-2,-3.16598E-2,-3E-1,1.5560485E-1,-3E-1,1.0273604E-1,-3E-1,-2.3455353E-1,1.1128473E-1,-3E-1,2.9420593E-1,3E-1,-3E-1,-1.7161101E-1,1.8376917E-1,3E-1,-3E-1,-3E-1,1.5307023E-1,-3E-1,1.2533896E-1,2.9420593E-1,-3E-1,2.7339914E-1,-3E-1],"categories":[],"categories_nodes":[],"categories_segments":[],"categories_sizes":[],"default_left":[false,false,false,false,false,false,false,false,false,false,false,false,false,false,false,false,false,false,false,false,false,false,false,false,false,false,false,false,false,false,false,false,false,false,false,false,false,false,false,false,false,false,false,false,false,false,false,false,false,false,false,false,false,false,false,false,false,false,false,false,false,false,false,false,false,false,false,false,false,false,false,false,false,false,false,false,false,false,false,false,false,false,false,false,false,false,false,false,false,false,false],"id":0,"left_children":[1,3,5,7,9,11,13,15,17,19,-1,21,23,25,27,29,31,33,-1,35,-1,37,39,41,43,45,47,49,51,53,-1,55,57,59,61,63,-1,65,67,69,71,73,75,-1,77,79,81,83,85,87,-1,89,-1,-1,-1,-1,-1,-1,-1,-1,-1,-1,-1,-1,-1,-1,-1,-1,-1,-1,-1,-1,-1,-1,-1,-1,-1,-1,-1,-1,-1,-1,-1,-1,-1,-1,-1,-1,-1,-1,-1],"loss_changes":[1.7978463E4,4.9117188E2,2.1116758E3,1.8532227E1,6.5E1,6.238672E2,1.6776947E2,1.9225713E2,2.209961E0,2.3E1,0E0,3.206914E2,3.0998688E1,8.5373215E1,1.1047485E1,2.9787323E1,1.1659917E2,4.5594048E1,0E0,7E0,0E0,1.5160645E2,1.4131937E2,2.327946E1,7.222458E0,3.4196957E1,4.51521E1,3.7133514E1,1.2526855E0,1.3888336E1,0E0,3.8241173E1,9.550941E0,1.0954933E1,8.770979E0,1.9992676E0,0E0,1.0136914E2,3.9398117E0,4.137806E1,2.2919678E1,2.1043758E1,1.4395142E1,0E0,1.0171226E1,2.5775726E1,1.6339987E1,5.6632107E1,1.6786621E1,1.4395142E1,0E0,2.3592476E1,0E0,0E0,0E0,0E0,0E0,0E0,0E0,0E0,0E0,0E0,0E0,0E0,0E0,0E0,0E0,0E0,0E0,0E0,0E0,0E0,0E0,0E0,0E0,0E0,0E0,0E0,0E0,0E0,0E0,0E0,0E0,0E0,0E0,0E0,0E0,0E0,0E0,0E0,0E0],"parents":[2147483647,0,0,1,1,2,2,3,3,4,4,5,5,6,6,7,7,8,8,9,9,11,11,12,12,13,13,14,14,15,15,16,16,17,17,19,19,21,21,22,22,23,23,24,24,25,25,26,26,27,27,28,28,29,29,31,31,32,32,33,33,34,34,35,35,37,37,38,38,39,39,40,40,41,41,42,42,44,44,45,45,46,46,47,47,48,48,49,49,51,51],"right_children":[2,4,6,8,10,12,14,16,18,20,-1,22,24,26,28,30,32,34,-1,36,-1,38,40,42,44,46,48,50,52,54,-1,56,58,60,62,64,-1,66,68,70,72,74,76,-1,78,80,82,84,86,88,-1,90,-1,-1,-1,-1,-1,-1,-1,-1,-1,-1,-1,-1,-1,-1,-1,-1,-1,-1,-1,-1,-1,-1,-1,-1,-1,-1,-1,-1,-1,-1,-1,-1,-1,-1,-1,-1,-1,-1,-1],"split_conditions":[6.661617E-1,2.0240052E0,-3.5976946E-1,-3.746936E-1,-1.0149068E-2,-4.7523803E-1,-1.1095954E-1,1.5403745E-1,-8.6889154E-1,-2.7831793E-1,-3E-1,-6.764581E-2,-3.567199E-1,-4.3507722E-1,-7.474941E-1,-3.747657E-1,-5.9415084E-1,4.1009957E-1,-3E-1,2.4058004E-1,-3E-1,-2.5835934E-1,-4.2794284E-1,-9.475683E-2,1.591192E0,5.2753054E-2,-2.4437694E-1,-7.6177096E-1,-9.082478E-1,-1.02024674E-1,3E-1,-3.8228717E-1,-8.590703E-1,-8.796293E-1,-1.434488E-1,-3.3845466E-1,-3E-1,-1.904203E-2,-8.023884E-1,-3.5147652E-1,-3.809394E-1,-1.4877199E-1,-3.6979327E-1,-3E-1,-1.6478796E-1,-3.78425E-1,-3.797335E-1,-3.7320086E-1,6.299712E-2,-1.0641901E-1,3E-1,-3.459785E-1,-3E-1,-3E-1,-1.2592463E-1,-3E-1,3E-1,1.5072618E-1,-3E-1,1.9314767E-1,-3E-1,3E-1,-3E-1,3E-1,1.2533896E-1,3E-1,4.428869E-2,-3.16598E-2,-3E-1,1.5560485E-1,-3E-1,1.0273604E-1,-3E-1,-2.3455353E-1,1.1128473E-1,-3E-1,2.9420593E-1,3E-1,-3E-1,-1.7161101E-1,1.8376917E-1,3E-1,-3E-1,-3E-1,1.5307023E-1,-3E-1,1.2533896E-1,2.9420593E-1,-3E-1,2.7339914E-1,-3E-1],"split_indices":[5,6,1,4,2,3,2,5,0,4,0,2,4,0,0,4,3,5,0,3,0,4,0,2,0,3,1,0,3,5,0,4,0,3,2,4,0,0,0,4,4,2,1,0,2,4,4,4,4,2,0,0,0,0,0,0,0,0,0,0,0,0,0,0,0,0,0,0,0,0,0,0,0,0,0,0,0,0,0,0,0,0,0,0,0,0,0,0,0,0,0],"split_type":[0,0,0,0,0,0,0,0,0,0,0,0,0,0,0,0,0,0,0,0,0,0,0,0,0,0,0,0,0,0,0,0,0,0,0,0,0,0,0,0,0,0,0,0,0,0,0,0,0,0,0,0,0,0,0,0,0,0,0,0,0,0,0,0,0,0,0,0,0,0,0,0,0,0,0,0,0,0,0,0,0,0,0,0,0,0,0,0,0,0,0],"sum_hessian":[1.1195E4,4.922067E3,6.2729326E3,4.8090454E3,1.13021545E2,5.6380186E3,6.349141E2,3.6276364E2,4.4462817E3,1.04771545E2,8.25E0,5.4679585E3,1.7005998E2,3.3912677E2,2.9578735E2,2.4171156E2,1.2105208E2,4.6795258E1,4.399487E3,1.01771545E2,3E0,5.222521E3,2.4543785E2,9.853735E1,7.152263E1,1.6236996E2,1.7675682E2,3.0121048E1,2.6566632E2,2.3586314E2,5.848419E0,8.970366E1,3.134842E1,3.359842E1,1.3196838E1,1.00771545E2,1E0,5.1985967E3,2.392421E1,1.718168E2,7.362105E1,6.5264725E1,3.327263E1,6.734842E1,4.1742096E0,1.4302155E2,1.934842E1,9.196156E1,8.479526E1,2.184842E1,8.272629E0,2.2772629E1,2.4289368E2,1.9264368E2,4.3219467E1,5E0,8.470366E1,3.6742096E0,2.767421E1,3.4242096E0,3.017421E1,1.1946838E1,1.25E0,9.292313E1,7.848419E0,5.0586963E3,1.399005E2,5.1742096E0,1.875E1,1.576426E2,1.417421E1,1.2272629E1,6.134842E1,2.4522629E1,4.0742096E1,3.034842E1,2.9242096E0,2.4242096E0,1.75E0,2.0772629E1,1.2224892E2,2.6742096E0,1.667421E1,4.194684E1,5.0014725E1,7.694684E1,7.848419E0,2.9242096E0,1.892421E1,6.348419E0,1.642421E1],"tree_param":{"num_deleted":"0","num_feature":"7","num_nodes":"91","size_leaf_vector":"0"}},{"base_weights":[-5.0827814E-3,-1E0,9.606499E-1,-1E0,8.7801445E-1,1E0,-5.222889E-1,-5.874701E-1,-1E0,1E0,-3E-1,1E0,-7.721253E-1,-9.5223546E-2,-1E0,4.0028536E-1,-1E0,-3.395913E-1,-1E0,1E0,-3E-1,1E0,8.678885E-3,-3.924327E-1,-1E0,3.5736588E-1,-5.486903E-1,-2.2540396E-2,-1E0,8.9078057E-1,-9.022811E-1,-1E0,1.4574726E-1,9.014757E-1,-3E-1,-9.107194E-1,-1E0,1E0,3.6737546E-1,1E0,-1E0,2.8755188E-1,-1E0,3.2607186E-1,-6.8480045E-1,-1E0,2.546087E-1,6.338679E-1,-7.866427E-1,-1E0,-2.210161E-1,9.549873E-1,-5.4954565E-1,-6.015358E-1,-1E0,3E-1,-2.3020689E-1,1.8515117E-1,-3E-1,3E-1,-3E-1,3E-1,-3E-1,3E-1,-3E-1,-3E-1,-3.177223E-2,-2.6893908E-1,-3E-1,3E-1,-3E-1,2.5686073E-1,-3E-1,3E-1,-2.7035704E-2,8.586022E-2,-3E-1,1.2138214E-1,-3E-1,3E-1,-3E-1,-2.5133538E-1,3E-1,-3.705209E-2,-3E-1,-3E-1,-1.3003251E-1,-2.251289E-1,2.2873761E-1,1.794158E-2,-3E-1,-7.687595E-2,-3E-1,8.48251E-2,-2.2505963E-1,-3E-1,3E-1,3E-1,-3E-1,-3E-1,3E-1,-1.8047114E-1,-3E-1],"categories":[],"categories_nodes":[],"categories_segments":[],"categories_sizes":[],"default_left":[false,false,false,false,false,false,false,false,false,false,false,false,false,false,false,false,false,false,false,false,false,false,false,false,false,false,false,false,false,false,false,false,false,false,false,false,false,false,false,false,false,false,false,false,false,false,false,false,false,false,false,false,false,false,false,false,false,false,false,false,false,false,false,false,false,false,false,false,false,false,false,false,false,false,false,false,false,false,false,false,false,false,false,false,false,false,false,false,false,false,false,false,false,false,false,false,false,false,false,false,false,false,false],"id":1,"left_children":[1,3,5,7,9,11,13,15,17,19,-1,21,23,25,27,29,31,33,35,37,-1,39,41,43,45,47,49,51,53,55,57,59,61,63,-1,65,67,69,71,73,75,77,79,81,83,85,-1,87,89,91,93,95,97,99,101,-1,-1,-1,-1,-1,-1,-1,-1,-1,-1,-1,-1,-1,-1,-1,-1,-1,-1,-1,-1,-1,-1,-1,-1,-1,-1,-1,-1,-1,-1,-1,-1,-1,-1,-1,-1,-1,-1,-1,-1,-1,-1,-1,-1,-1,-1,-1,-1],"loss_changes":[1.2772785E4,3.928164E2,1.8550596E3,4.748535E1,5.3512047E1,4.541255E2,2.0478413E2,1.6306071E2,5.1279297E0,1.942675E1,0E0,2.9164746E2,2.4993332E1,9.7846924E1,3.2774933E1,7.005912E1,2.7200882E1,1.9815218E1,2.0019531E0,5.166336E0,0E0,1.0712695E2,9.7426346E1,1.929803E1,1.21901245E1,7.601604E1,4.4378204E1,1.8736092E1,3.8115845E0,2.8463924E1,2.0143045E1,1.9578857E1,4.4603462E1,9.141043E0,0E0,6.952295E1,4.6972656E-1,8.7799835E0,1.4793131E1,7.096826E1,7.5580215E0,4.119721E1,1.5696114E1,2.2438002E1,2.562785E1,1.808197E0,0E0,3.4895752E1,1.7655891E1,1.4203293E1,4.144964E1,1.3646817E1,3.2051716E1,3.4516052E1,5.454407E-1,0E0,0E0,0E0,0E0,0E0,0E0,0E0,0E0,0E0,0E0,0E0,0E0,0E0,0E0,0E0,0E0,0E0,0E0,0E0,0E0,0E0,0E0,0E0,0E0,0E0,0E0,0E0,0E0,0E0,0E0,0E0,0E0,0E0,0E0,0E0,0E0,0E0,0E0,0E0,0E0,0E0,0E0,0E0,0E0,0E0,0E0,0E0,0E0],"parents":[2147483647,0,0,1,1,2,2,3,3,4,4,5,5,6,6,7,7,8,8,9,9,11,11,12,12,13,13,14,14,15,15,16,16,17,17,18,18,19,19,21,21,22,22,23,23,24,24,25,25,26,26,27,27,28,28,29,29,30,30,31,31,32,32,33,33,35,35,36,36,37,37,38,38,39,39,40,40,41,41,42,42,43,43,44,44,45,45,47,47,48,48,49,49,50,50,51,51,52,52,53,53,54,54],"right_children":[2,4,6,8,10,12,14,16,18,20,-1,22,24,26,28,30,32,34,36,38,-1,40,42,44,46,48,50,52,54,56,58,60,62,64,-1,66,68,70,72,74,76,78,80,82,84,86,-1,88,90,92,94,96,98,100,102,-1,-1,-1,-1,-1,-1,-1,-1,-1,-1,-1,-1,-1,-1,-1,-1,-1,-1,-1,-1,-1,-1,-1,-1,-1,-1,-1,-1,-1,-1,-1,-1,-1,-1,-1,-1,-1,-1,-1,-1,-1,-1,-1,-1,-1,-1,-1,-1],"split_conditions":[6.661617E-1,2.0240052E0,-4.0358648E-1,-8.732503E-1,-1.0149068E-2,-4.7523803E-1,-1.0641901E-1,-3.6423472E-1,-1.7230695E-1,-2.7831793E-1,-3E-1,-8.189962E-2,-3.506578E-1,-4.533551E-1,-9.082478E-1,-4.0916386E-1,4.1009957E-1,-3.5836074E-1,-1.6289903E-1,-3.9474362E-1,-3E-1,-2.5835934E-1,-3.245599E-1,-6.777614E-1,1.591192E0,-3.506578E-1,-3.757807E-1,-3.459785E-1,-7.474941E-1,-4.6476042E-1,-6.187865E-1,-1.7168197E-1,-6.0042E-1,-4.0916386E-1,-3E-1,1.5403745E-1,-3.7922955E-1,-2.6696438E-1,-2.888439E-1,1.7783639E-1,-8.023884E-1,-3.5147652E-1,-6.4551383E-1,-7.580934E-1,-1.17355905E-1,1.7783639E-1,2.546087E-1,-3.7992278E-1,-7.580934E-1,-3.5317993E-1,-6.380897E-1,2.0240052E0,9.222238E-1,-7.6177096E-1,-3.815225E-1,3E-1,-2.3020689E-1,1.8515117E-1,-3E-1,3E-1,-3E-1,3E-1,-3E-1,3E-1,-3E-1,-3E-1,-3.177223E-2,-2.6893908E-1,-3E-1,3E-1,-3E-1,2.5686073E-1,-3E-1,3E-1,-2.7035704E-2,8.586022E-2,-3E-1,1.2138214E-1,-3E-1,3E-1,-3E-1,-2.5133538E-1,3E-1,-3.705209E-2,-3E-1,-3E-1,-1.3003251E-1,-2.251289E-1,2.2873761E-1,1.794158E-2,-3E-1,-7.687595E-2,-3E-1,8.48251E-2,-2.2505963E-1,-3E-1,3E-1,3E-1,-3E-1,-3E-1,3E-1,-1.8047114E-1,-3E-1],"split_indices":[5,6,1,3,2,3,2,4,2,4,0,2,4,0,3,0,5,4,2,1,0,4,0,0,0,4,4,0,0,1,1,2,0,0,0,5,4,3,0,0,0,4,1,0,2,0,0,4,0,1,3,6,5,0,4,0,0,0,0,0,0,0,0,0,0,0,0,0,0,0,0,0,0,0,0,0,0,0,0,0,0,0,0,0,0,0,0,0,0,0,0,0,0,0,0,0,0,0,0,0,0,0,0],"split_type":[0,0,0,0,0,0,0,0,0,0,0,0,0,0,0,0,0,0,0,0,0,0,0,0,0,0,0,0,0,0,0,0,0,0,0,0,0,0,0,0,0,0,0,0,0,0,0,0,0,0,0,0,0,0,0,0,0,0,0,0,0,0,0,0,0,0,0,0,0,0,0,0,0,0,0,0,0,0,0,0,0,0,0,0,0,0,0,0,0,0,0,0,0,0,0,0,0,0,0,0,0,0,0],"sum_hessian":[1.0957775E4,4.813996E3,6.1437793E3,4.703337E3,1.1065946E2,5.3397373E3,8.040421E2,2.8390146E2,4.419435E3,1.0259234E2,8.067124E0,5.1958125E3,1.439244E2,4.7480185E2,3.292403E2,1.0739739E2,1.7650407E2,1.3052528E1,4.406383E3,9.965884E1,2.9334998E0,4.8990186E3,2.9679413E2,8.9802864E1,5.4121525E1,2.3773686E2,2.3706497E2,3.4350574E1,2.948897E2,7.82483E1,2.9149094E1,1.5602156E2,2.0482515E1,6.452154E0,6.6003747E0,3.756162E2,4.0307666E3,8.525128E1,1.4407557E1,4.878467E3,2.055187E1,2.411368E2,5.5657314E1,2.5939734E1,6.3863132E1,5.126214E1,2.8593895E0,1.9182056E2,4.59163E1,8.337656E1,1.5368842E2,1.17478E1,2.2602776E1,2.9304842E1,2.6558487E2,6.951281E1,8.735496E0,7.1946354E0,2.1954458E1,2.614931E0,1.5340663E2,1.1682016E1,8.800499E0,4.985404E0,1.4667499E0,2.8464117E2,9.097502E1,1.360835E2,3.894683E3,8.4015305E1,1.2359787E0,1.1944724E1,2.4628327E0,4.8189053E3,5.9561306E1,4.1731634E0,1.6378708E1,2.2384889E2,1.7287909E1,2.6622825E0,5.299503E1,9.562242E0,1.6377493E1,4.204911E1,2.1814022E1,4.351358E1,7.748556E0,1.5893116E1,1.7592744E2,1.7511232E1,2.8405067E1,2.6484459E1,5.6892097E1,7.8973564E1,7.471484E1,1.7180254E0,1.0029774E1,5.2824106E0,1.7320364E1,2.121559E1,8.089252E0,8.735307E0,2.5684955E2],"tree_param":{"num_deleted":"0","num_feature":"7","num_nodes":"103","size_leaf_vector":"0"}},{"base_weights":[-9.363657E-3,-1E0,7.934896E-1,-1E0,7.1245646E-1,1E0,-3.2736737E-1,-5.8500534E-1,-1E0,9.258555E-1,-9.612376E-1,1E0,7.177032E-2,-1.4226905E-2,-9.0697443E-1,-1E0,4.772423E-2,-7.5381166E-1,-1E0,1E0,-1.8923652E-1,-3E-1,3.1473064E-1,1E0,-1.6119465E-1,3.6254397E-1,-1E0,2.7180347E-1,-5.2567667E-1,-5.724239E-1,-1E0,-1E0,-3.678612E-1,3.483073E-1,-1E0,-3.038977E-1,-1E0,-5.4705524E-1,-3E-1,1.8065487E-1,1E0,3E-1,-3E-1,-2.8868103E-1,3E-1,1E0,-9.4036937E-1,1.4958355E-1,-1E0,5.0405353E-1,-5.815345E-1,3.3492643E-1,-1E0,4.758309E-1,-7.5074536E-1,-1E0,-1.7150106E-1,1.7933735E-1,-9.820249E-1,-1.1026865E-1,-1E0,-3E-1,-1.6367642E-2,6.78882E-2,-3E-1,2.9518658E-1,-2.7743904E-2,-3E-1,3E-1,3.0133737E-2,-3E-1,1.6801684E-1,-3E-1,3E-1,-3E-1,2.4806014E-1,-3E-1,3E-1,2.6707435E-2,3E-1,7.982578E-3,-3E-1,2.1615756E-1,1.1897404E-1,-1.776185E-1,-3E-1,2.241812E-1,1.7040163E-1,-1.0959079E-1,3E-1,-3E-1,2.0877811E-1,-3E-1,-3E-1,-8.840104E-2,1.6628113E-1,-2.7478418E-1,2.2379858E-2,-3E-1,2.347316E-1,-3E-1,2.2005126E-2,-3E-1,-3E-1,1.2817508E-1,-1.4226237E-2,-3E-1,-3E-1,3E-1,-1.7635076E-1,-3E-1],"categories":[],"categories_nodes":[],"categories_segments":[],"categories_sizes":[],"default_left":[false,false,false,false,false,false,false,false,false,false,false,false,false,false,false,false,false,false,false,false,false,false,false,false,false,false,false,false,false,false,false,false,false,false,false,false,false,false,false,false,false,false,false,false,false,false,false,false,false,false,false,false,false,false,false,false,false,false,false,false,false,false,false,false,false,false,false,false,false,false,false,false,false,false,false,false,false,false,false,false,false,false,false,false,false,false,false,false,false,false,false,false,false,false,false,false,false,false,false,false,false,false,false,false,false,false,false,false,false,false,false],"id":2,"left_children":[1,3,5,7,9,11,13,15,17,19,21,23,25,27,29,31,33,35,37,39,41,-1,43,45,47,49,51,53,55,57,59,61,63,65,67,69,71,73,-1,75,77,-1,-1,-1,-1,79,81,83,85,87,89,91,93,95,97,99,101,103,105,107,109,-1,-1,-1,-1,-1,-1,-1,-1,-1,-1,-1,-1,-1,-1,-1,-1,-1,-1,-1,-1,-1,-1,-1,-1,-1,-1,-1,-1,-1,-1,-1,-1,-1,-1,-1,-1,-1,-1,-1,-1,-1,-1,-1,-1,-1,-1,-1,-1,-1,-1],"loss_changes":[8.5143955E3,3.0712744E2,1.4429832E3,1.0568457E2,3.8418354E1,4.224502E2,1.7419406E2,1.9839256E2,1.9112793E1,1.3848984E1,6.521899E0,1.6615625E2,1.6184798E2,9.14533E1,2.597345E1,3.9326965E1,9.644768E1,6.917758E1,1.3037109E0,4.0626526E0,1.7859087E1,0E0,5.206617E0,5.7855957E1,3.4948044E1,5.263614E1,2.7424278E1,8.4009094E1,4.23137E1,5.051366E1,3.67688E0,5.61261E0,5.975448E1,6.228354E1,2.2625923E1,8.0031425E1,1.8682877E1,1.4653322E1,0E0,8.994945E0,2.8899536E0,0E0,0E0,0E0,0E0,4.0256348E1,1.1846767E1,1.7308151E1,2.257685E1,1.9180717E1,4.5751873E1,1.0027266E1,2.7862396E0,3.7066467E1,2.0298717E1,2.2070976E1,3.4430447E1,1.777894E1,1.1183769E1,8.993484E0,5.897064E-1,0E0,0E0,0E0,0E0,0E0,0E0,0E0,0E0,0E0,0E0,0E0,0E0,0E0,0E0,0E0,0E0,0E0,0E0,0E0,0E0,0E0,0E0,0E0,0E0,0E0,0E0,0E0,0E0,0E0,0E0,0E0,0E0,0E0,0E0,0E0,0E0,0E0,0E0,0E0,0E0,0E0,0E0,0E0,0E0,0E0,0E0,0E0,0E0,0E0,0E0],"parents":[2147483647,0,0,1,1,2,2,3,3,4,4,5,5,6,6,7,7,8,8,9,9,10,10,11,11,12,12,13,13,14,14,15,15,16,16,17,17,18,18,19,19,20,20,22,22,23,23,24,24,25,25,26,26,27,27,28,28,29,29,30,30,31,31,32,32,33,33,34,34,35,35,36,36,37,37,39,39,40,40,45,45,46,46,47,47,48,48,49,49,50,50,51,51,52,52,53,53,54,54,55,55,56,56,57,57,58,58,59,59,60,60],"right_children":[2,4,6,8,10,12,14,16,18,20,22,24,26,28,30,32,34,36,38,40,42,-1,44,46,48,50,52,54,56,58,60,62,64,66,68,70,72,74,-1,76,78,-1,-1,-1,-1,80,82,84,86,88,90,92,94,96,98,100,102,104,106,108,110,-1,-1,-1,-1,-1,-1,-1,-1,-1,-1,-1,-1,-1,-1,-1,-1,-1,-1,-1,-1,-1,-1,-1,-1,-1,-1,-1,-1,-1,-1,-1,-1,-1,-1,-1,-1,-1,-1,-1,-1,-1,-1,-1,-1,-1,-1,-1,-1,-1,-1],"split_conditions":[6.661617E-1,2.0240052E0,-4.402708E-1,-3.6633718E-1,-3.3032585E-2,-1.0201643E-1,-1.02963306E-1,-1.02024674E-1,-1.6289903E-1,-3.3845466E-1,4.1009957E-1,-5.5421054E-1,-4.234033E-1,-3.1668898E-1,-3.459785E-1,6.0312283E-1,-7.444952E-2,-2.9075372E-1,-6.446442E-1,-9.005198E-1,-6.6673553E-1,-3E-1,-2.8093737E-1,-2.5835934E-1,-3.492332E-1,-1.4688198E-2,-3.809394E-1,-3.4610984E-1,-3.757807E-1,-7.424206E-1,-4.2887446E-1,2.2089257E0,-3.7421975E-1,-5.762629E-1,1.9031315E0,-1.409407E-1,-8.6889154E-1,-5.558593E-1,-3E-1,-3.763678E-1,-1.5113764E-1,3E-1,-3E-1,-2.8868103E-1,3E-1,1.6066234E-1,-1.164805E-1,-3.4535122E-1,1.6066234E-1,-3.5147652E-1,-6.336641E-1,-5.3964064E-2,-4.548881E-1,-4.4404797E-2,-7.474941E-1,-1.7014563E-1,1.00431584E-1,-8.718418E-2,-9.33653E-2,1.9464723E0,-9.1982543E-1,-3E-1,-1.6367642E-2,6.78882E-2,-3E-1,2.9518658E-1,-2.7743904E-2,-3E-1,3E-1,3.0133737E-2,-3E-1,1.6801684E-1,-3E-1,3E-1,-3E-1,2.4806014E-1,-3E-1,3E-1,2.6707435E-2,3E-1,7.982578E-3,-3E-1,2.1615756E-1,1.1897404E-1,-1.776185E-1,-3E-1,2.241812E-1,1.7040163E-1,-1.0959079E-1,3E-1,-3E-1,2.0877811E-1,-3E-1,-3E-1,-8.840104E-2,1.6628113E-1,-2.7478418E-1,2.2379858E-2,-3E-1,2.347316E-1,-3E-1,2.2005126E-2,-3E-1,-3E-1,1.2817508E-1,-1.4226237E-2,-3E-1,-3E-1,3E-1,-1.7635076E-1,-3E-1],"split_indices":[5,6,1,4,2,2,2,5,2,4,5,3,0,0,0,6,2,4,1,3,0,0,0,4,4,2,4,4,4,3,1,1,1,1,0,3,0,0,0,4,1,0,0,0,0,0,2,3,0,4,1,0,1,3,0,2,3,2,2,5,3,0,0,0,0,0,0,0,0,0,0,0,0,0,0,0,0,0,0,0,0,0,0,0,0,0,0,0,0,0,0,0,0,0,0,0,0,0,0,0,0,0,0,0,0,0,0,0,0,0,0],"split_type":[0,0,0,0,0,0,0,0,0,0,0,0,0,0,0,0,0,0,0,0,0,0,0,0,0,0,0,0,0,0,0,0,0,0,0,0,0,0,0,0,0,0,0,0,0,0,0,0,0,0,0,0,0,0,0,0,0,0,0,0,0,0,0,0,0,0,0,0,0,0,0,0,0,0,0,0,0,0,0,0,0,0,0,0,0,0,0,0,0,0,0,0,0,0,0,0,0,0,0,0,0,0,0,0,0,0,0,0,0,0,0],"sum_hessian":[1.0316293E4,4.5222456E3,5.794047E3,4.4181724E3,1.0407303E2,4.8352207E3,9.588266E2,6.18467E2,3.7997056E3,9.270038E1,1.1372648E1,4.3447573E3,4.904631E2,6.231734E2,3.3565323E2,3.406383E2,2.7782867E2,3.3084058E2,3.468865E3,8.283686E1,9.863521E0,8.010242E0,3.362405E0,4.221788E3,1.229694E2,3.9080032E2,9.966279E1,3.999617E2,2.2321167E2,1.6247495E2,1.7317827E2,2.407198E2,9.9918495E1,2.2096928E2,5.6859398E1,1.853346E2,1.4550597E2,1.0225933E1,3.458639E3,6.5412517E0,7.629561E1,5.3412514E0,4.5222692E0,1.1439213E0,2.218484E0,4.207156E3,1.4632124E1,9.2203384E1,3.0766012E1,3.402637E2,5.0536636E1,1.4950527E1,8.4712265E1,3.338782E2,6.60835E1,8.762075E1,1.3559091E2,5.7501583E1,1.04973366E2,4.907993E0,1.6827028E2,2.3432204E2,6.3977695E0,6.621748E1,3.370101E1,8.997963E1,1.3098965E2,5.441213E1,2.4472682E0,1.4047325E2,4.486134E1,7.0873666E0,1.384186E2,3.362405E0,6.8635273E0,5.1445365E0,1.3967155E0,7.260821E1,3.6874042E0,4.164613E3,4.2542984E1,1.1273525E1,3.3585992E0,6.951685E1,2.2686533E1,2.4043379E1,6.722634E0,3.1727112E2,2.2992567E1,1.0938491E1,3.9598145E1,1.2716707E1,2.2338197E0,7.810161E1,6.610658E0,3.1663467E2,1.724353E1,2.1053396E1,4.5030106E1,6.2616696E0,8.135908E1,1.1113437E2,2.4456549E1,9.339604E0,4.816198E1,1.2464742E1,9.250862E1,2.3254411E0,2.5825515E0,8.357719E0,1.5991255E2],"tree_param":{"num_deleted":"0","num_feature":"7","num_nodes":"111","size_leaf_vector":"0"}},{"base_weights":[-1.6946446E-2,-8.789409E-1,6.518854E-1,-5.97922E-1,-1E0,8.447158E-1,-2.7458188E-1,-1.8864772E-1,-8.6859924E-1,-1E0,-2.5084355E-1,9.6431637E-1,1.1521071E-1,-6.622908E-2,-8.8842845E-1,1.5527044E-1,-9.108564E-1,-5.085681E-1,-9.6673524E-1,-6.3145596E-1,-1E0,7.5001526E-1,-3E-1,1E0,8.338386E-2,2.2650164E-1,-1E0,1.0484506E-1,-6.399369E-1,-4.3732095E-1,-1E0,-4.3996492E-1,6.106991E-1,-9.7485435E-1,2.3402365E-1,-4.363263E-2,-1E0,-1E0,-7.5975984E-1,-3E-1,8.575246E-2,-1.1669035E-1,-1E0,-3E-1,3E-1,1E0,5.667962E-1,3.1462133E-1,-9.617368E-1,4.5886698E-1,-1.7473724E-1,-1E0,-3.667163E-2,-5.476039E-1,2.566574E-1,9.90705E-1,-7.7529675E-1,-6.263813E-2,-3E-1,-8.084502E-1,-3E-1,4.989097E-2,-2.569562E-1,2.2163586E-1,-3E-1,2.2918274E-1,-2.9943204E-1,-3E-1,3E-1,-1.9568054E-1,1.4413004E-1,3E-1,-3E-1,6.053724E-2,-3E-1,-1.2779832E-1,-3E-1,1.734437E-1,-3E-1,3E-1,-3E-1,-2.5680012E-1,-3E-1,3E-1,2.4845861E-1,2.5332123E-1,9.0157084E-2,1.18389346E-1,-3E-1,-3E-1,9.75069E-2,-1.866199E-2,2.10591E-1,2.949207E-2,-2.1400268E-1,7.9308614E-2,-3E-1,-3E-1,2.72967E-1,-6.2339466E-2,-3E-1,1.1296994E-1,-2.6897195E-1,-3E-1,3E-1,-3E-1,-3.8550994E-3,-7.466264E-2,3E-1,3E-1,-3E-1],"categories":[],"categories_nodes":[],"categories_segments":[],"categories_sizes":[],"default_left":[false,false,false,false,false,false,false,false,false,false,false,false,false,false,false,false,false,false,false,false,false,false,false,false,false,false,false,false,false,false,false,false,false,false,false,false,false,false,false,false,false,false,false,false,false,false,false,false,false,false,false,false,false,false,false,false,false,false,false,false,false,false,false,false,false,false,false,false,false,false,false,false,false,false,false,false,false,false,false,false,false,false,false,false,false,false,false,false,false,false,false,false,false,false,false,false,false,false,false,false,false,false,false,false,false,false,false,false,false,false,false],"id":3,"left_children":[1,3,5,7,9,11,13,15,17,19,21,23,25,27,29,31,33,35,37,39,41,43,-1,45,47,49,51,53,55,57,59,61,63,65,67,69,71,73,75,-1,77,79,81,-1,-1,83,85,87,89,91,93,95,97,99,101,103,105,107,-1,109,-1,-1,-1,-1,-1,-1,-1,-1,-1,-1,-1,-1,-1,-1,-1,-1,-1,-1,-1,-1,-1,-1,-1,-1,-1,-1,-1,-1,-1,-1,-1,-1,-1,-1,-1,-1,-1,-1,-1,-1,-1,-1,-1,-1,-1,-1,-1,-1,-1,-1,-1],"loss_changes":[5.4275874E3,2.0981836E2,9.472771E2,1.856048E2,7.586426E0,3.8274487E2,1.1684075E2,1.6626382E2,3.516101E1,5.0810547E0,1.6730185E1,1.6325293E2,7.99646E1,6.714798E1,2.7372986E1,1.23321465E2,1.6047012E1,6.197747E1,1.2042603E1,2.0673317E1,4.7575684E0,7.087813E0,0E0,8.7003174E1,4.8929092E1,5.2828583E1,1.1663765E1,5.23738E1,3.5451073E1,3.0739689E1,1.9509888E-1,4.998011E1,6.3213013E1,9.037231E0,2.0462006E1,4.065669E1,1.7699516E1,1.6893555E1,3.1112106E1,0E0,1.5429447E1,1.11881895E1,8.408203E-1,0E0,0E0,1.2856201E1,3.44097E1,2.3827164E1,1.4053429E1,4.5463295E1,3.069009E1,8.30069E0,2.0556152E1,2.5677546E1,5.9589417E1,8.956563E0,4.154087E1,2.1725056E1,0E0,1.9142517E1,0E0,0E0,0E0,0E0,0E0,0E0,0E0,0E0,0E0,0E0,0E0,0E0,0E0,0E0,0E0,0E0,0E0,0E0,0E0,0E0,0E0,0E0,0E0,0E0,0E0,0E0,0E0,0E0,0E0,0E0,0E0,0E0,0E0,0E0,0E0,0E0,0E0,0E0,0E0,0E0,0E0,0E0,0E0,0E0,0E0,0E0,0E0,0E0,0E0,0E0,0E0],"parents":[2147483647,0,0,1,1,2,2,3,3,4,4,5,5,6,6,7,7,8,8,9,9,10,10,11,11,12,12,13,13,14,14,15,15,16,16,17,17,18,18,19,19,20,20,21,21,23,23,24,24,25,25,26,26,27,27,28,28,29,29,30,30,31,31,32,32,33,33,34,34,35,35,36,36,37,37,38,38,40,40,41,41,42,42,45,45,46,46,47,47,48,48,49,49,50,50,51,51,52,52,53,53,54,54,55,55,56,56,57,57,59,59],"right_children":[2,4,6,8,10,12,14,16,18,20,22,24,26,28,30,32,34,36,38,40,42,44,-1,46,48,50,52,54,56,58,60,62,64,66,68,70,72,74,76,-1,78,80,82,-1,-1,84,86,88,90,92,94,96,98,100,102,104,106,108,-1,110,-1,-1,-1,-1,-1,-1,-1,-1,-1,-1,-1,-1,-1,-1,-1,-1,-1,-1,-1,-1,-1,-1,-1,-1,-1,-1,-1,-1,-1,-1,-1,-1,-1,-1,-1,-1,-1,-1,-1,-1,-1,-1,-1,-1,-1,-1,-1,-1,-1,-1,-1],"split_conditions":[6.661617E-1,-3.4535122E-1,-4.402708E-1,-1.3915607E-1,2.0240052E0,-1.1182966E-1,-8.189962E-2,-4.2021838E-1,-3.6229005E-1,-8.4450173E-1,-3.632541E-1,-6.3197005E-1,-3.5147652E-1,-2.0951596E-1,-4.3507722E-1,6.0312283E-1,-3.7678212E-1,-9.246549E-2,-5.430944E-1,-3.580868E-1,-1.7230695E-1,-3.706399E-1,-3E-1,-5.258206E-1,-3.4721276E-1,-6.0531753E-1,2.0240052E0,-3.788667E-1,-8.5111123E-1,-3.4214914E-1,9.222238E-1,-3.5954532E-1,-2.1184452E-1,-8.950691E-1,-1.02024674E-1,6.0312283E-1,-9.288267E-1,-6.407796E-1,-2.9029417E-1,-3E-1,-8.189962E-2,-3.5836074E-1,-1.1262732E0,-3E-1,3E-1,-5.234803E-1,-8.956548E-1,2.3456047E-1,-4.7025666E-1,-3.779294E-1,-5.3535527E-1,-8.134989E-1,-7.424206E-1,-3.1740315E-2,-3.2020822E-1,-8.7798107E-1,-2.9833663E-1,-3.4721276E-1,-3E-1,-3.7694374E-1,-3E-1,4.989097E-2,-2.569562E-1,2.2163586E-1,-3E-1,2.2918274E-1,-2.9943204E-1,-3E-1,3E-1,-1.9568054E-1,1.4413004E-1,3E-1,-3E-1,6.053724E-2,-3E-1,-1.2779832E-1,-3E-1,1.734437E-1,-3E-1,3E-1,-3E-1,-2.5680012E-1,-3E-1,3E-1,2.4845861E-1,2.5332123E-1,9.0157084E-2,1.18389346E-1,-3E-1,-3E-1,9.75069E-2,-1.866199E-2,2.10591E-1,2.949207E-2,-2.1400268E-1,7.9308614E-2,-3E-1,-3E-1,2.72967E-1,-6.2339466E-2,-3E-1,1.1296994E-1,-2.6897195E-1,-3E-1,3E-1,-3E-1,-3.8550994E-3,-7.466264E-2,3E-1,3E-1,-3E-1],"split_indices":[5,3,1,2,6,2,2,1,4,0,4,3,4,1,0,6,3,2,3,5,2,4,0,0,4,0,6,4,0,4,5,4,4,0,5,6,3,1,1,0,2,4,5,0,0,1,3,0,1,4,1,0,3,0,4,0,4,4,0,4,0,0,0,0,0,0,0,0,0,0,0,0,0,0,0,0,0,0,0,0,0,0,0,0,0,0,0,0,0,0,0,0,0,0,0,0,0,0,0,0,0,0,0,0,0,0,0,0,0,0,0],"split_type":[0,0,0,0,0,0,0,0,0,0,0,0,0,0,0,0,0,0,0,0,0,0,0,0,0,0,0,0,0,0,0,0,0,0,0,0,0,0,0,0,0,0,0,0,0,0,0,0,0,0,0,0,0,0,0,0,0,0,0,0,0,0,0,0,0,0,0,0,0,0,0,0,0,0,0,0,0,0,0,0,0,0,0,0,0,0,0,0,0,0,0,0,0,0,0,0,0,0,0,0,0,0,0,0,0,0,0,0,0,0,0],"sum_hessian":[9.412249E3,4.112159E3,5.3000894E3,1.6758969E3,2.4362625E3,4.3870737E3,9.130159E2,6.678217E2,1.0080751E3,2.421963E3,1.4299691E1,3.7688567E3,6.182169E2,6.824765E2,2.305394E2,4.5292322E2,2.1489853E2,2.172464E2,7.908287E2,4.3773006E1,2.37819E3,7.593128E0,6.706563E0,3.5686472E3,2.0020947E2,5.647635E2,5.3453453E1,5.2634326E2,1.5613324E2,9.77192E1,1.3282019E2,1.963422E2,2.5658102E2,2.0366245E2,1.1236074E1,1.254818E2,9.1764595E1,5.506662E2,2.4016248E2,2.1229383E1,2.2543621E1,6.3786716E0,2.3718113E3,1.0969899E0,6.496138E0,3.100711E3,4.6793613E2,1.645099E2,3.5699566E1,3.5755356E2,2.0720993E2,4.0807175E1,1.2646277E1,9.886043E1,4.2748285E2,1.1482903E1,1.4465033E2,7.069538E1,2.7023823E1,3.157226E1,1.0124794E2,8.020708E1,1.1613512E2,2.4126837E2,1.5312643E1,2.267213E0,2.0139523E2,5.010436E0,6.2256384E0,5.7943356E1,6.7538445E1,2.848259E0,8.8916336E1,1.1389145E1,5.392771E2,1.387066E2,1.0145589E2,1.674072E1,5.8029003E0,2.6291597E0,3.7495117E0,8.777932E1,2.284032E3,2.6322847E3,4.6842645E2,2.2802881E2,2.3990732E2,1.5882872E2,5.6811876E0,2.809486E1,7.6047063E0,1.1398311E2,2.4357043E2,1.3804561E2,6.916432E1,4.8179855E0,3.598919E1,4.2649937E0,8.381284E0,7.407398E1,2.4786442E1,3.8783096E2,3.96519E1,1.1289039E0,1.0353999E1,9.444788E1,5.0202454E1,6.547697E1,5.2184086E0,3.0598505E0,2.851241E1],"tree_param":{"num_deleted":"0","num_feature":"7","num_nodes":"111","size_leaf_vector":"0"}},{"base_weights":[-1.7795134E-2,-7.3792833E-1,5.304853E-1,-5.352436E-1,-9.7328496E-1,7.000465E-1,-2.2934626E-1,-3.063502E-1,-8.960821E-1,-8.0192053E-1,-1E0,8.493089E-1,2.1235526E-1,-6.2439766E-2,-7.525784E-1,-5.9528214E-1,5.071423E-2,-1E0,-7.101778E-1,-9.0064013E-1,-9.097235E-2,-1E0,-1.8389498E-1,1E0,5.663233E-1,3.636559E-1,-5.263818E-1,1.53695475E-2,-1E0,-3.4055325E-1,-1E0,-8.460112E-1,-3.2762045E-1,2.6609486E-1,-8.1041825E-1,3E-1,-1E0,-6.106776E-1,-1E0,-6.232691E-1,-1E0,1E0,-3.876041E-1,-1E0,-8.154944E-1,-3E-1,7.927064E-1,1E0,7.029422E-1,6.179045E-1,-4.7073317E-1,4.6331757E-1,-2.1886316E-1,-3.0591743E-2,-1E0,8.543528E-2,-9.58969E-1,-1E0,3E-1,-1.7995423E-2,-3E-1,-6.5691066E-1,-3E-1,-3E-1,-8.86465E-2,1.3729738E-1,-1.3700862E-1,1.2401594E-1,-7.525143E-2,-3E-1,7.9947814E-2,-3E-1,-2.431479E-1,-2.8876796E-1,-1.4365986E-1,3E-1,-3E-1,-2.1498114E-1,3E-1,-3E-1,-1.2554856E-1,3E-1,-2.2926326E-1,-3E-1,1.3096544E-3,-3E-1,-2.4660414E-1,3E-1,-2.603063E-1,1.19686805E-1,3E-1,3E-1,2.1820082E-1,2.627127E-1,4.4443496E-2,2.0376159E-1,1.4728126E-3,-3E-1,7.7128722E-3,2.2656466E-1,1.02338225E-1,-1.1838984E-1,3E-1,1.1676457E-1,-2.2927628E-1,-1.0097367E-1,-3E-1,-2.395617E-1,4.6521608E-2,-3E-1,1.19996615E-1,4.1561957E-2,-3E-1,5.1013533E-2,-3E-1,3E-1,-2.7747703E-1],"categories":[],"categories_nodes":[],"categories_segments":[],"categories_sizes":[],"default_left":[false,false,false,false,false,false,false,false,false,false,false,false,false,false,false,false,false,false,false,false,false,false,false,false,false,false,false,false,false,false,false,false,false,false,false,false,false,false,false,false,false,false,false,false,false,false,false,false,false,false,false,false,false,false,false,false,false,false,false,false,false,false,false,false,false,false,false,false,false,false,false,false,false,false,false,false,false,false,false,false,false,false,false,false,false,false,false,false,false,false,false,false,false,false,false,false,false,false,false,false,false,false,false,false,false,false,false,false,false,false,false,false,false,false,false,false,false],"id":4,"left_children":[1,3,5,7,9,11,13,15,17,19,21,23,25,27,29,31,33,35,37,39,41,43,45,47,49,51,53,55,57,59,61,63,65,67,69,-1,71,73,75,77,79,81,83,85,87,-1,89,91,93,95,97,99,101,103,105,107,109,111,-1,113,-1,115,-1,-1,-1,-1,-1,-1,-1,-1,-1,-1,-1,-1,-1,-1,-1,-1,-1,-1,-1,-1,-1,-1,-1,-1,-1,-1,-1,-1,-1,-1,-1,-1,-1,-1,-1,-1,-1,-1,-1,-1,-1,-1,-1,-1,-1,-1,-1,-1,-1,-1,-1,-1,-1,-1,-1],"loss_changes":[3.3362776E3,1.7371362E2,6.1823987E2,1.6199469E2,1.2833008E1,2.853424E2,7.6454285E1,1.242066E2,2.5462402E1,2.6818848E1,6.8811035E0,1.2929004E2,1.0307558E2,5.363689E1,2.7378494E1,4.4376343E1,1.0023447E2,1.6310822E1,1.3819794E1,1.8074493E1,2.3850124E1,4.4346924E0,1.1939673E1,3.1725342E1,5.6742188E1,4.4490227E1,4.097805E1,4.2419964E1,2.0113426E1,2.6644644E1,2.4532928E0,4.3053406E1,3.2993946E1,3.3005913E1,3.6106194E1,0E0,1.904541E0,1.4689888E1,1.9486855E1,2.6223427E1,6.9068604E0,6.5419273E0,1.3908754E1,2.9158936E0,1.870694E1,0E0,2.6058197E-1,1.4963379E0,3.5416626E1,3.778955E1,2.468573E1,2.3040863E1,2.7868122E1,2.5589241E1,1.0262291E1,3.579549E1,9.890743E0,6.199028E0,0E0,1.7389462E1,0E0,1.6371735E1,0E0,0E0,0E0,0E0,0E0,0E0,0E0,0E0,0E0,0E0,0E0,0E0,0E0,0E0,0E0,0E0,0E0,0E0,0E0,0E0,0E0,0E0,0E0,0E0,0E0,0E0,0E0,0E0,0E0,0E0,0E0,0E0,0E0,0E0,0E0,0E0,0E0,0E0,0E0,0E0,0E0,0E0,0E0,0E0,0E0,0E0,0E0,0E0,0E0,0E0,0E0,0E0,0E0,0E0,0E0],"parents":[2147483647,0,0,1,1,2,2,3,3,4,4,5,5,6,6,7,7,8,8,9,9,10,10,11,11,12,12,13,13,14,14,15,15,16,16,17,17,18,18,19,19,20,20,21,21,22,22,23,23,24,24,25,25,26,26,27,27,28,28,29,29,30,30,31,31,32,32,33,33,34,34,36,36,37,37,38,38,39,39,40,40,41,41,42,42,43,43,44,44,46,46,47,47,48,48,49,49,50,50,51,51,52,52,53,53,54,54,55,55,56,56,57,57,59,59,61,61],"right_children":[2,4,6,8,10,12,14,16,18,20,22,24,26,28,30,32,34,36,38,40,42,44,46,48,50,52,54,56,58,60,62,64,66,68,70,-1,72,74,76,78,80,82,84,86,88,-1,90,92,94,96,98,100,102,104,106,108,110,112,-1,114,-1,116,-1,-1,-1,-1,-1,-1,-1,-1,-1,-1,-1,-1,-1,-1,-1,-1,-1,-1,-1,-1,-1,-1,-1,-1,-1,-1,-1,-1,-1,-1,-1,-1,-1,-1,-1,-1,-1,-1,-1,-1,-1,-1,-1,-1,-1,-1,-1,-1,-1,-1,-1,-1,-1,-1,-1],"split_conditions":[6.661617E-1,-9.1209926E-2,-4.402708E-1,-2.8538388E-1,-4.9756828E-1,-1.2790143E-1,-8.189962E-2,6.0312283E-1,-6.141489E-1,-5.355172E-1,2.0240052E0,-8.723022E-1,-4.234033E-1,6.7493093E-1,-4.3507722E-1,-3.580868E-1,-2.983579E-1,-6.446442E-1,1.1780307E-1,-2.1769844E-2,-8.471794E-2,1.7395504E0,4.1009957E-1,-6.546393E-1,-4.6419352E-1,-6.840122E-1,-3.7688586E-1,1.9396135E-1,1.8639938E0,-3.4214914E-1,9.222238E-1,-3.242295E-1,-3.786388E-1,-4.5303297E-1,-1.1341495E-1,3E-1,-1.1182966E-1,-2.4793132E-1,-8.8944894E-1,-2.4762595E-2,4.0642965E-1,-3.57559E-1,-3.2611066E-1,1.6605858E0,-8.944418E-1,-3E-1,-1.3586526E-1,-3.5235423E-1,2.0240052E0,-2.722187E-1,-3.712546E-1,-9.095665E-1,-4.4632256E-1,2.0240052E0,-5.994703E-1,-3.8070202E-1,6.299712E-2,-4.1652977E-1,3E-1,1.9464723E0,-3E-1,-9.1023064E-1,-3E-1,-3E-1,-8.86465E-2,1.3729738E-1,-1.3700862E-1,1.2401594E-1,-7.525143E-2,-3E-1,7.9947814E-2,-3E-1,-2.431479E-1,-2.8876796E-1,-1.4365986E-1,3E-1,-3E-1,-2.1498114E-1,3E-1,-3E-1,-1.2554856E-1,3E-1,-2.2926326E-1,-3E-1,1.3096544E-3,-3E-1,-2.4660414E-1,3E-1,-2.603063E-1,1.19686805E-1,3E-1,3E-1,2.1820082E-1,2.627127E-1,4.4443496E-2,2.0376159E-1,1.4728126E-3,-3E-1,7.7128722E-3,2.2656466E-1,1.02338225E-1,-1.1838984E-1,3E-1,1.1676457E-1,-2.2927628E-1,-1.0097367E-1,-3E-1,-2.395617E-1,4.6521608E-2,-3E-1,1.19996615E-1,4.1561957E-2,-3E-1,5.1013533E-2,-3E-1,3E-1,-2.7747703E-1],"split_indices":[5,2,1,4,0,2,2,6,5,0,6,3,0,0,0,5,1,1,4,2,2,0,5,0,3,3,4,3,3,4,5,4,4,3,2,0,2,4,3,2,2,4,4,4,3,0,0,4,6,0,4,3,0,6,1,4,4,1,0,5,0,3,0,0,0,0,0,0,0,0,0,0,0,0,0,0,0,0,0,0,0,0,0,0,0,0,0,0,0,0,0,0,0,0,0,0,0,0,0,0,0,0,0,0,0,0,0,0,0,0,0,0,0,0,0,0,0],"split_type":[0,0,0,0,0,0,0,0,0,0,0,0,0,0,0,0,0,0,0,0,0,0,0,0,0,0,0,0,0,0,0,0,0,0,0,0,0,0,0,0,0,0,0,0,0,0,0,0,0,0,0,0,0,0,0,0,0,0,0,0,0,0,0,0,0,0,0,0,0,0,0,0,0,0,0,0,0,0,0,0,0,0,0,0,0,0,0,0,0,0,0,0,0,0,0,0,0,0,0,0,0,0,0,0,0,0,0,0,0,0,0,0,0,0,0,0,0],"sum_hessian":[8.4478125E3,3.6514749E3,4.7963374E3,1.9636719E3,1.687803E3,3.9213435E3,8.749939E2,1.2026407E3,7.610311E2,3.8228635E2,1.3055166E3,3.001856E3,9.194877E2,6.642297E2,2.1076418E2,6.643722E2,5.3826855E2,3.4902237E2,4.1200873E2,3.3544138E2,4.6844967E1,1.2946836E3,1.0833004E1,1.9475447E3,1.0543112E3,7.636022E2,1.5588551E2,6.191764E2,4.50533E1,9.406782E1,1.1669636E2,3.4192093E2,3.2245126E2,4.311286E2,1.0713998E2,3.1753206E0,3.4584705E2,3.2565204E2,8.63567E1,1.5680003E2,1.7864136E2,5.3632603E0,4.148171E1,1.1360442E3,1.5863936E2,5.3544416E0,5.478562E0,1.5776927E3,3.698519E2,1.00474146E3,4.9569725E1,6.5222015E2,1.1138202E2,8.1117065E1,7.476845E1,5.7848895E2,4.0687447E1,4.233575E1,2.717548E0,7.053835E1,2.3529467E1,2.8337265E1,8.835909E1,2.3778065E2,1.04140274E2,4.5159554E1,2.7729172E2,3.3568185E2,9.544676E1,8.258338E1,2.4556593E1,2.6596823E2,7.987884E1,8.702597E1,2.3862607E2,3.5123203E0,8.2844376E1,1.4934534E2,7.4546876E0,1.5625847E2,2.2382887E1,3.9401047E0,1.4231555E0,1.1908607E1,2.9573101E1,1.01342847E3,1.2261576E2,3.148169E0,1.554912E2,3.2600782E0,2.218484E0,1.545113E3,3.2579803E1,2.8158612E2,8.826577E1,9.1330133E2,9.1440155E1,1.2690963E1,3.687876E1,1.9093004E2,4.612901E2,9.968168E1,1.1700339E1,5.1893005E1,2.922406E1,2.4588701E1,5.017975E1,4.1479374E1,5.370096E2,3.609505E1,4.5923934E0,4.5536346E0,3.7782116E1,6.2824615E1,7.713736E0,2.9123902E0,2.5424875E1],"tree_param":{"num_deleted":"0","num_feature":"7","num_nodes":"117","size_leaf_vector":"0"}},{"base_weights":[-2.2252906E-2,-5.63444E-1,4.7611713E-1,-9.4926715E-2,-7.1913165E-1,6.805232E-1,6.024381E-4,-6.002131E-1,2.2471169E-1,-5.4298365E-1,-8.325053E-1,8.171851E-1,2.717619E-1,1.09833665E-1,-8.159931E-1,-9.8557323E-1,1.106366E-2,3.291555E-1,-1E0,-2.8409195E-1,-6.9245553E-1,-7.1042395E-1,-9.363625E-1,9.302712E-1,5.660861E-1,3.9758462E-1,-6.2584984E-1,3.8536674E-1,-1.7693146E-1,-5.664479E-1,-3E-1,-1E0,3.2308543E-1,2.571091E-1,-9.918779E-1,4.509304E-1,-5.15355E-2,1.7829508E-1,-3E-1,-9.954412E-2,-9.283284E-1,-7.6525027E-1,-1.5566935E-1,-8.339269E-1,-3.8696355E-1,-2.4275684E-1,-9.6761316E-1,9.860597E-1,7.3614365E-1,6.369965E-1,1.3855086E-1,1.3346788E-1,5.6555825E-1,-2.6365623E-1,-1E0,4.6867344E-1,-7.460894E-1,-7.97137E-2,-1E0,-1E0,-2.4145134E-1,9.42217E-2,-3E-1,3E-1,-3E-1,-2.849849E-2,2.5961035E-1,9.222767E-2,-3E-1,1.5211469E-1,-3E-1,1.0063359E-1,-1.807113E-1,-9.637552E-2,1.578485E-1,-3E-1,-1.5363935E-1,-3E-1,-1.8356237E-1,-1.3980551E-1,2.9653347E-1,-8.243017E-2,-2.663262E-1,2.2501266E-3,-2.035436E-1,1.7877775E-1,-3E-1,-8.56379E-2,-2.9530385E-1,2.4736275E-1,3E-1,2.7462912E-1,-2.493762E-2,-3E-1,1.9386838E-1,7.612702E-2,-3E-1,1.6276534E-1,-1.4885209E-2,1.8894121E-1,-5.6534212E-2,8.781798E-2,-2.5734958E-1,3E-1,-3E-1,2.2668527E-1,8.841922E-2,-3E-1,1.5654047E-1,-3E-1,-7.848445E-3,-3E-1,-1.6728872E-1,-3E-1,-2.0430934E-1,1.9336154E-1,-1.8576196E-1],"categories":[],"categories_nodes":[],"categories_segments":[],"categories_sizes":[],"default_left":[false,false,false,false,false,false,false,false,false,false,false,false,false,false,false,false,false,false,false,false,false,false,false,false,false,false,false,false,false,false,false,false,false,false,false,false,false,false,false,false,false,false,false,false,false,false,false,false,false,false,false,false,false,false,false,false,false,false,false,false,false,false,false,false,false,false,false,false,false,false,false,false,false,false,false,false,false,false,false,false,false,false,false,false,false,false,false,false,false,false,false,false,false,false,false,false,false,false,false,false,false,false,false,false,false,false,false,false,false,false,false,false,false,false,false,false,false],"id":5,"left_children":[1,3,5,7,9,11,13,15,17,19,21,23,25,27,29,31,33,35,37,39,41,43,45,47,49,51,53,55,57,59,-1,61,63,65,67,69,71,-1,-1,73,75,77,79,81,83,85,87,89,91,93,95,97,99,101,103,105,107,109,111,113,115,-1,-1,-1,-1,-1,-1,-1,-1,-1,-1,-1,-1,-1,-1,-1,-1,-1,-1,-1,-1,-1,-1,-1,-1,-1,-1,-1,-1,-1,-1,-1,-1,-1,-1,-1,-1,-1,-1,-1,-1,-1,-1,-1,-1,-1,-1,-1,-1,-1,-1,-1,-1,-1,-1,-1,-1],"loss_changes":[2.0425237E3,2.647473E2,3.831994E2,1.4656813E2,5.3964233E1,1.5380273E2,1.0589889E2,8.282973E1,8.1505486E1,4.1204773E1,2.0330566E1,5.813562E1,7.844314E1,8.280768E1,1.0795395E1,1.0788605E1,3.404539E1,2.407502E1,7.6002693E0,4.6668304E1,2.6357666E1,3.0250885E1,1.9091064E1,1.4683472E1,1.943718E1,2.6891388E1,1.997437E1,5.071662E1,5.0119366E1,1.9986507E1,0E0,1.09823E1,1.3554938E1,2.380164E1,7.6142406E0,4.002984E1,2.7196115E1,0E0,0E0,4.2735718E1,8.279404E0,2.5111603E1,2.9637486E1,1.6399872E1,2.45373E1,3.1271305E1,9.453674E0,4.506714E0,4.7308502E1,1.2647995E1,1.5074316E1,1.7822979E1,1.810212E1,2.0337847E1,1.445665E1,2.4649475E1,1.8430954E1,2.3407558E1,1.0932884E0,8.468628E-4,2.2225803E1,0E0,0E0,0E0,0E0,0E0,0E0,0E0,0E0,0E0,0E0,0E0,0E0,0E0,0E0,0E0,0E0,0E0,0E0,0E0,0E0,0E0,0E0,0E0,0E0,0E0,0E0,0E0,0E0,0E0,0E0,0E0,0E0,0E0,0E0,0E0,0E0,0E0,0E0,0E0,0E0,0E0,0E0,0E0,0E0,0E0,0E0,0E0,0E0,0E0,0E0,0E0,0E0,0E0,0E0,0E0,0E0],"parents":[2147483647,0,0,1,1,2,2,3,3,4,4,5,5,6,6,7,7,8,8,9,9,10,10,11,11,12,12,13,13,14,14,15,15,16,16,17,17,18,18,19,19,20,20,21,21,22,22,23,23,24,24,25,25,26,26,27,27,28,28,29,29,31,31,32,32,33,33,34,34,35,35,36,36,39,39,40,40,41,41,42,42,43,43,44,44,45,45,46,46,47,47,48,48,49,49,50,50,51,51,52,52,53,53,54,54,55,55,56,56,57,57,58,58,59,59,60,60],"right_children":[2,4,6,8,10,12,14,16,18,20,22,24,26,28,30,32,34,36,38,40,42,44,46,48,50,52,54,56,58,60,-1,62,64,66,68,70,72,-1,-1,74,76,78,80,82,84,86,88,90,92,94,96,98,100,102,104,106,108,110,112,114,116,-1,-1,-1,-1,-1,-1,-1,-1,-1,-1,-1,-1,-1,-1,-1,-1,-1,-1,-1,-1,-1,-1,-1,-1,-1,-1,-1,-1,-1,-1,-1,-1,-1,-1,-1,-1,-1,-1,-1,-1,-1,-1,-1,-1,-1,-1,-1,-1,-1,-1,-1,-1,-1,-1,-1,-1],"split_conditions":[9.222238E-1,-3.6104062E-1,-5.108258E-1,-1.02024674E-1,-3.4535122E-1,-1.3077386E-1,-5.7580724E-2,6.0312283E-1,-3.0418888E-2,-4.5977652E-1,-8.189962E-2,-8.63398E-1,-4.161365E-1,-5.6442636E-1,-2.4667959E-1,2.2089257E0,-9.1209926E-2,-5.616757E-1,-6.388253E-1,-2.0566449E-1,-4.250087E-1,-1.1182966E-1,-1.1262732E0,-7.327676E-1,-6.2454206E-1,-3.7711558E-1,2.0240052E0,-3.506578E-1,6.7493093E-1,-4.2021838E-1,-3E-1,-8.333063E-1,1.3841082E0,-3.6838093E-1,-8.9249796E-1,-2.752858E-1,6.0312283E-1,1.7829508E-1,-3E-1,-5.1374245E-1,-1.006823E-1,-6.141489E-1,-1.4688198E-2,-5.7455266E-1,-2.706629E-1,-2.6299882E-1,-3.006727E-1,-3.7992278E-1,2.0240052E0,-3.8408676E-1,-1.3794237E-1,-9.10674E-1,-3.4610984E-1,-1.0479806E-1,-6.4551383E-1,-8.8738775E-1,2.0240052E0,-3.8139823E-1,-6.3197005E-1,-3.701291E-1,-3.5976946E-1,9.42217E-2,-3E-1,3E-1,-3E-1,-2.849849E-2,2.5961035E-1,9.222767E-2,-3E-1,1.5211469E-1,-3E-1,1.0063359E-1,-1.807113E-1,-9.637552E-2,1.578485E-1,-3E-1,-1.5363935E-1,-3E-1,-1.8356237E-1,-1.3980551E-1,2.9653347E-1,-8.243017E-2,-2.663262E-1,2.2501266E-3,-2.035436E-1,1.7877775E-1,-3E-1,-8.56379E-2,-2.9530385E-1,2.4736275E-1,3E-1,2.7462912E-1,-2.493762E-2,-3E-1,1.9386838E-1,7.612702E-2,-3E-1,1.6276534E-1,-1.4885209E-2,1.8894121E-1,-5.6534212E-2,8.781798E-2,-2.5734958E-1,3E-1,-3E-1,2.2668527E-1,8.841922E-2,-3E-1,1.5654047E-1,-3E-1,-7.848445E-3,-3E-1,-1.6728872E-1,-3E-1,-2.0430934E-1,1.9336154E-1,-1.8576196E-1],"split_indices":[5,4,1,5,3,2,2,6,2,0,2,3,0,0,0,1,2,3,1,4,3,2,5,0,3,4,6,4,0,1,0,0,3,4,3,1,6,0,0,3,2,5,2,1,4,4,3,4,6,4,2,3,4,2,1,3,6,4,3,4,1,0,0,0,0,0,0,0,0,0,0,0,0,0,0,0,0,0,0,0,0,0,0,0,0,0,0,0,0,0,0,0,0,0,0,0,0,0,0,0,0,0,0,0,0,0,0,0,0,0,0,0,0,0,0,0,0],"split_type":[0,0,0,0,0,0,0,0,0,0,0,0,0,0,0,0,0,0,0,0,0,0,0,0,0,0,0,0,0,0,0,0,0,0,0,0,0,0,0,0,0,0,0,0,0,0,0,0,0,0,0,0,0,0,0,0,0,0,0,0,0,0,0,0,0,0,0,0,0,0,0,0,0,0,0,0,0,0,0,0,0,0,0,0,0,0,0,0,0,0,0,0,0,0,0,0,0,0,0,0,0,0,0,0,0,0,0,0,0,0,0,0,0,0,0,0,0],"sum_hessian":[7.5709443E3,3.6294805E3,3.9414639E3,9.0565735E2,2.723823E3,2.7562314E3,1.1852325E3,3.505802E2,5.550772E2,1.0688877E3,1.6549353E3,2.0648782E3,6.913533E2,1.0461593E3,1.3907315E2,2.1464912E2,1.3593106E2,5.1782025E2,3.7256924E1,3.923028E2,6.7658484E2,7.643286E2,8.906067E2,1.4218308E3,6.4304724E2,6.0684576E2,8.450752E1,5.3335297E2,5.128064E2,8.698375E1,5.20894E1,2.0888928E2,5.7598433E0,1.0975034E2,2.6180727E1,3.921844E2,1.2563588E2,2.3834734E0,3.487345E1,3.0584503E2,8.645778E1,5.954138E2,8.117103E1,5.519906E2,2.1233803E2,3.8774647E1,8.518321E2,1.1012682E3,3.2056265E2,5.5114514E2,9.190212E1,2.3660681E2,3.7023892E2,5.9760414E1,2.474711E1,4.97322E2,3.6030975E1,4.7034332E2,4.2463078E1,2.2768524E1,6.4215225E1,5.939089E0,2.029502E2,2.3936877E0,3.3661556E0,7.00463E1,3.9704037E1,4.040496E0,2.214023E1,3.8151254E2,1.0671822E1,7.4023125E1,5.1612755E1,2.2618648E2,7.965854E1,4.6583878E1,3.98739E1,2.0489807E2,3.9051575E2,6.4317215E1,1.6853815E1,4.900691E1,5.029837E2,9.064964E1,1.21688385E2,2.0625135E1,1.8149511E1,2.082724E1,8.310048E2,1.8483096E2,9.1643726E2,2.6291064E2,5.7652027E1,1.1390142E0,5.500061E2,8.5839264E1,6.0628552E0,7.25465E1,1.640603E2,3.4132104E2,2.8917875E1,3.1123697E1,2.8636717E1,2.3243053E0,2.2422804E1,1.8643156E2,3.108904E2,2.7609776E1,8.421199E0,2.4677256E1,4.4566605E2,3.276621E1,9.696869E0,1.3931293E1,8.837232E0,1.8983932E1,4.5231293E1],"tree_param":{"num_deleted":"0","num_feature":"7","num_nodes":"117","size_leaf_vector":"0"}},{"base_weights":[-2.3730276E-2,-4.644383E-1,3.7856075E-1,-9.047997E-2,-5.9618545E-1,6.4310926E-1,8.742691E-2,5.6377526E-2,-9.2038804E-1,-5.2010155E-1,-8.895157E-1,8.3415127E-1,4.1521004E-1,2.0297045E-1,-4.299225E-1,2.0060822E-1,-6.0521936E-1,3E-1,-9.760829E-1,-6.359248E-1,-3.0721515E-1,-9.20589E-1,4.0153575E-1,8.8928527E-1,3.7032858E-1,5.9958005E-1,7.980518E-2,3.0856836E-1,-1.8506627E-1,-2.5982198E-1,-1E0,9.114641E-2,8.3107275E-1,-1E0,-1.3279189E-1,-1E0,3.667755E-1,-5.1038665E-1,-9.38853E-1,-1.6071685E-1,-5.856654E-1,-1E0,-7.4845594E-1,-3E-1,1E0,7.7683085E-1,9.64107E-1,4.2044723E-1,-3E-1,7.1449524E-1,3.9346108E-1,2.919754E-1,-3.8782582E-1,3.4622806E-1,-9.815362E-1,-9.089948E-2,-3E-1,1.5792191E-3,-7.5092876E-1,-3E-1,-5.1466024E-1,-6.833901E-2,9.043961E-2,9.0922855E-2,3E-1,-1.4815533E-1,-3E-1,2.2474183E-1,-2.8736043E-1,-3E-1,-1.7636818E-1,3E-1,-2.8181458E-1,-2.9132393E-1,-1.1106888E-1,1.3134541E-2,-3E-1,-2.8344616E-2,-3E-1,-2.1565887E-1,3E-1,-3E-1,-9.557698E-2,3E-1,-2.466995E-1,-1.797341E-1,3E-1,2.5072175E-1,1.6451222E-1,2.9135463E-1,-4.93396E-2,1.3902842E-1,-3E-1,2.1854256E-1,-3E-1,-9.8724954E-2,1.3846958E-1,1.1316579E-1,-3E-1,-2.464534E-1,3.6782827E-2,1.4910534E-1,2.728852E-2,-3E-1,2.1423928E-1,-2.0894851E-1,-5.3599556E-3,3.7962288E-2,-3E-1,-3E-1,1.21730745E-1,3E-1,-3E-1],"categories":[],"categories_nodes":[],"categories_segments":[],"categories_sizes":[],"default_left":[false,false,false,false,false,false,false,false,false,false,false,false,false,false,false,false,false,false,false,false,false,false,false,false,false,false,false,false,false,false,false,false,false,false,false,false,false,false,false,false,false,false,false,false,false,false,false,false,false,false,false,false,false,false,false,false,false,false,false,false,false,false,false,false,false,false,false,false,false,false,false,false,false,false,false,false,false,false,false,false,false,false,false,false,false,false,false,false,false,false,false,false,false,false,false,false,false,false,false,false,false,false,false,false,false,false,false,false,false,false,false,false,false],"id":6,"left_children":[1,3,5,7,9,11,13,15,17,19,21,23,25,27,29,31,33,-1,35,37,39,41,43,45,47,49,51,53,55,57,59,61,63,65,67,69,71,73,75,77,79,81,83,-1,85,87,89,91,-1,93,95,97,99,101,103,105,-1,107,109,-1,111,-1,-1,-1,-1,-1,-1,-1,-1,-1,-1,-1,-1,-1,-1,-1,-1,-1,-1,-1,-1,-1,-1,-1,-1,-1,-1,-1,-1,-1,-1,-1,-1,-1,-1,-1,-1,-1,-1,-1,-1,-1,-1,-1,-1,-1,-1,-1,-1,-1,-1,-1,-1],"loss_changes":[1.203352E3,1.5952509E2,2.7323584E2,1.0304009E2,5.298816E1,8.0587585E1,1.01136925E2,6.872105E1,1.6245346E1,4.6755188E1,2.0101776E1,2.5504822E1,5.249489E1,5.670718E1,3.287136E1,4.070897E1,3.394268E1,0E0,1.1308952E1,4.6382538E1,2.7353912E1,1.0244232E1,2.5479338E1,6.842224E0,1.1865099E1,1.2702042E1,3.0130772E1,5.3158997E1,2.8166784E1,3.1464094E1,2.566681E0,3.3922337E1,7.6776085E0,9.2593384E-1,5.3968086E1,3.9114227E0,1.26008005E1,5.6035965E1,2.270279E1,2.8694656E1,5.3310295E1,9.233582E0,3.5888382E1,0E0,4.195341E0,4.4618683E0,4.452179E0,8.465849E0,0E0,9.140472E0,9.916355E0,2.8193392E1,2.1098646E1,4.0642426E1,3.2183502E1,1.2081652E1,0E0,2.4589605E1,4.7180855E1,0E0,1.8243189E1,0E0,0E0,0E0,0E0,0E0,0E0,0E0,0E0,0E0,0E0,0E0,0E0,0E0,0E0,0E0,0E0,0E0,0E0,0E0,0E0,0E0,0E0,0E0,0E0,0E0,0E0,0E0,0E0,0E0,0E0,0E0,0E0,0E0,0E0,0E0,0E0,0E0,0E0,0E0,0E0,0E0,0E0,0E0,0E0,0E0,0E0,0E0,0E0,0E0,0E0,0E0,0E0],"parents":[2147483647,0,0,1,1,2,2,3,3,4,4,5,5,6,6,7,7,8,8,9,9,10,10,11,11,12,12,13,13,14,14,15,15,16,16,18,18,19,19,20,20,21,21,22,22,23,23,24,24,25,25,26,26,27,27,28,28,29,29,30,30,31,31,32,32,33,33,34,34,35,35,36,36,37,37,38,38,39,39,40,40,41,41,42,42,44,44,45,45,46,46,47,47,49,49,50,50,51,51,52,52,53,53,54,54,55,55,57,57,58,58,60,60],"right_children":[2,4,6,8,10,12,14,16,18,20,22,24,26,28,30,32,34,-1,36,38,40,42,44,46,48,50,52,54,56,58,60,62,64,66,68,70,72,74,76,78,80,82,84,-1,86,88,90,92,-1,94,96,98,100,102,104,106,-1,108,110,-1,112,-1,-1,-1,-1,-1,-1,-1,-1,-1,-1,-1,-1,-1,-1,-1,-1,-1,-1,-1,-1,-1,-1,-1,-1,-1,-1,-1,-1,-1,-1,-1,-1,-1,-1,-1,-1,-1,-1,-1,-1,-1,-1,-1,-1,-1,-1,-1,-1,-1,-1,-1,-1],"split_conditions":[9.222238E-1,-3.6104062E-1,-7.197209E-1,-6.1887912E-2,1.828196E-1,-8.916122E-1,-3.5317993E-1,-2.983579E-1,-9.288267E-1,6.0312283E-1,4.6840606E0,-1.20868005E-1,-5.46946E-1,-1.02963306E-1,-6.764581E-2,2.0240052E0,-1.0196306E-1,3E-1,2.2089257E0,-4.5287494E-2,-2.4437694E-1,9.3843006E-2,-3.580868E-1,-3.7778547E-1,-7.362705E-1,-1.389011E-1,-1.316504E-1,-3.2220554E-1,1.4200501E-1,2.0240052E0,6.7846686E-1,1.5403745E-1,-3.7836507E-1,-2.752858E-1,2.4058004E-1,4.1009957E-1,1.3841082E0,-3.3374143E-1,-1.1262732E0,-8.486125E-2,6.299712E-2,1.5403745E-1,1.0892339E-1,-3E-1,6.444216E-2,-1.4305475E-1,-3.293618E-1,-4.4306606E-1,-3E-1,-7.270499E-1,-1.338189E-1,-3.506578E-1,-4.12315E-1,2.0240052E0,1.2675598E-1,-9.593274E-2,-3E-1,1.5777399E-1,-3.703788E-1,-3E-1,7.3813814E-1,-6.833901E-2,9.043961E-2,9.0922855E-2,3E-1,-1.4815533E-1,-3E-1,2.2474183E-1,-2.8736043E-1,-3E-1,-1.7636818E-1,3E-1,-2.8181458E-1,-2.9132393E-1,-1.1106888E-1,1.3134541E-2,-3E-1,-2.8344616E-2,-3E-1,-2.1565887E-1,3E-1,-3E-1,-9.557698E-2,3E-1,-2.466995E-1,-1.797341E-1,3E-1,2.5072175E-1,1.6451222E-1,2.9135463E-1,-4.93396E-2,1.3902842E-1,-3E-1,2.1854256E-1,-3E-1,-9.8724954E-2,1.3846958E-1,1.1316579E-1,-3E-1,-2.464534E-1,3.6782827E-2,1.4910534E-1,2.728852E-2,-3E-1,2.1423928E-1,-2.0894851E-1,-5.3599556E-3,3.7962288E-2,-3E-1,-3E-1,1.21730745E-1,3E-1,-3E-1],"split_indices":[5,4,0,2,4,3,1,1,3,6,0,2,1,2,2,6,3,0,1,2,1,0,5,4,0,2,2,4,0,6,1,5,4,1,3,5,3,4,5,4,4,5,0,0,1,2,4,1,0,0,2,4,1,6,0,2,0,1,4,0,1,0,0,0,0,0,0,0,0,0,0,0,0,0,0,0,0,0,0,0,0,0,0,0,0,0,0,0,0,0,0,0,0,0,0,0,0,0,0,0,0,0,0,0,0,0,0,0,0,0,0,0,0],"split_type":[0,0,0,0,0,0,0,0,0,0,0,0,0,0,0,0,0,0,0,0,0,0,0,0,0,0,0,0,0,0,0,0,0,0,0,0,0,0,0,0,0,0,0,0,0,0,0,0,0,0,0,0,0,0,0,0,0,0,0,0,0,0,0,0,0,0,0,0,0,0,0,0,0,0,0,0,0,0,0,0,0,0,0,0,0,0,0,0,0,0,0,0,0,0,0,0,0,0,0,0,0,0,0,0,0,0,0,0,0,0,0,0,0],"sum_hessian":[6.7853755E3,3.2380032E3,3.5473723E3,8.440091E2,2.3939941E3,1.8579108E3,1.6894617E3,7.1790356E2,1.2610552E2,1.9031332E3,4.9086096E2,1.009235E3,8.486758E2,1.3815233E3,3.0793832E2,5.89982E2,1.279216E2,2.6475096E0,1.2345801E2,1.2312634E3,6.718697E2,4.7960468E2,1.125629E1,9.01194E2,1.0804102E2,5.471326E2,3.0154312E2,1.08615E3,2.9537332E2,2.4408424E2,6.3854084E1,5.0367758E2,8.630439E1,5.574117E1,7.218043E1,1.1783079E2,5.6272206E0,8.724086E2,3.5885486E2,4.4128036E2,2.3058934E2,2.5500142E2,2.2460324E2,6.5376077E0,4.7186823E0,3.6459824E2,5.365957E2,1.06858246E2,1.1827768E0,3.4970123E2,1.974314E2,2.0768802E2,9.385511E1,1.0560541E3,3.0095863E1,2.7244617E2,2.2927155E1,1.5994641E2,8.4137825E1,4.971244E1,1.4141644E1,2.0011914E2,3.0355847E2,2.1995426E1,6.430896E1,6.5176787E0,4.922349E1,3.4932648E1,3.7247784E1,8.9911446E1,2.7919348E1,2.304629E0,3.3225915E0,2.0211908E2,6.7028955E2,2.1990973E1,3.3686386E2,4.151595E2,2.6120892E1,2.1446985E2,1.6119488E1,2.3396141E2,2.1040007E1,6.812763E0,2.1779048E2,1.0316812E0,3.6870012E0,2.8774426E2,7.685398E1,5.3339136E2,3.2043924E0,1.0503564E2,1.8226031E0,3.4744534E2,2.2558658E0,1.6676085E1,1.8075533E2,1.9804517E2,9.642853E0,5.0412918E1,4.3442192E1,6.6329095E2,3.9276318E2,1.9798609E1,1.02972555E1,2.8401531E1,2.4404463E2,1.4638441E2,1.35619955E1,5.808446E1,2.6053362E1,2.8547404E0,1.1286902E1],"tree_param":{"num_deleted":"0","num_feature":"7","num_nodes":"113","size_leaf_vector":"0"}},{"base_weights":[-2.5280781E-2,-3.791941E-1,2.941742E-1,-5.898684E-1,-1.843223E-1,5.329862E-1,5.3839795E-2,-4.1489646E-1,-7.229212E-1,-8.231839E-2,-8.008773E-1,7.266968E-1,3.2370257E-1,1.4430505E-1,-4.803912E-1,-5.9431964E-1,-2.1663625E-2,-2.9136363E-1,-7.8839344E-1,4.2937465E-2,-3.6354995E-1,-8.40503E-1,1E0,7.876358E-1,2.7066925E-1,5.2449965E-1,9.2122614E-2,2.0399249E-1,-4.6478453E-1,4.7335154E-1,-7.028067E-1,-8.2432204E-1,-9.0694204E-2,-2.685675E-1,8.54971E-1,1.1469907E-1,-3E-1,-6.1553687E-1,-9.056865E-1,-1.9764185E-2,6.458568E-1,-3E-1,-2.8260258E-1,-1E0,-5.7094324E-1,-2.1157119E-1,3E-1,6.6753286E-1,8.711911E-1,3.204376E-1,-3E-1,6.8422186E-1,2.9713106E-1,1.4087564E-1,-3E-1,3.7495595E-1,-4.7044188E-2,-1.3083549E-1,-1E0,8.219252E-1,-6.359008E-1,-1E0,-5.4578274E-1,-1.5054157E-1,-2.8779295E-1,2.775793E-1,-1.4188556E-1,1.3641342E-2,-2.9461756E-1,3E-1,-3E-1,-3E-1,1.2409737E-1,-2.018569E-1,3E-1,-3E-1,-2.170243E-1,5.1326703E-2,-5.224124E-2,2.1524787E-1,-3E-1,3E-1,-1.030817E-1,-3E-1,-1.0886755E-1,-2.8805462E-1,-5.8448266E-2,2.8284025E-1,1.7918587E-1,2.632181E-1,-2.1460386E-1,-1.3903502E-1,1.2885047E-1,2.4495311E-1,1.1512494E-1,-8.104761E-2,1.1770287E-1,-1.11263745E-1,6.6760786E-2,1.2262328E-1,-2.5224504E-1,-6.690488E-2,1.5759136E-1,-1.3961981E-1,1.7010243E-1,-3E-1,-5.7123158E-2,2.9914784E-1,-3E-1,1.370316E-1,-3E-1,-1.7763357E-1,-3E-1,2.6162133E-1,-1.8927343E-1],"categories":[],"categories_nodes":[],"categories_segments":[],"categories_sizes":[],"default_left":[false,false,false,false,false,false,false,false,false,false,false,false,false,false,false,false,false,false,false,false,false,false,false,false,false,false,false,false,false,false,false,false,false,false,false,false,false,false,false,false,false,false,false,false,false,false,false,false,false,false,false,false,false,false,false,false,false,false,false,false,false,false,false,false,false,false,false,false,false,false,false,false,false,false,false,false,false,false,false,false,false,false,false,false,false,false,false,false,false,false,false,false,false,false,false,false,false,false,false,false,false,false,false,false,false,false,false,false,false,false,false,false,false,false,false],"id":7,"left_children":[1,3,5,7,9,11,13,15,17,19,21,23,25,27,29,31,33,35,37,39,41,43,45,47,49,51,53,55,57,59,61,63,65,67,69,71,-1,73,75,77,79,-1,81,83,85,-1,-1,87,89,91,-1,93,95,97,-1,99,101,103,105,107,109,111,113,-1,-1,-1,-1,-1,-1,-1,-1,-1,-1,-1,-1,-1,-1,-1,-1,-1,-1,-1,-1,-1,-1,-1,-1,-1,-1,-1,-1,-1,-1,-1,-1,-1,-1,-1,-1,-1,-1,-1,-1,-1,-1,-1,-1,-1,-1,-1,-1,-1,-1,-1,-1],"loss_changes":[6.959387E2,1.1977963E2,1.8566058E2,3.2357147E1,9.5431786E1,6.554886E1,7.805465E1,4.2904243E1,2.2246765E1,4.595098E1,1.8565933E1,2.318274E1,3.6305336E1,5.0290718E1,4.995081E1,4.830446E1,4.1705135E1,3.486285E1,1.3434509E1,3.4153316E1,2.6067001E1,1.1189362E1,6.706194E0,6.8658752E0,9.694188E0,1.4995262E1,2.4704826E1,5.4016487E1,2.4041462E1,1.7856552E1,1.3534142E1,1.199559E1,5.17259E1,3.3715363E1,3.0940952E1,2.6544384E1,0E0,3.3373505E1,9.85907E0,2.4159437E1,1.1742386E1,0E0,4.6187366E1,4.727707E0,1.3796333E1,0E0,0E0,5.407089E0,4.9020996E0,8.700966E0,0E0,9.427414E0,9.528756E0,1.4857765E1,0E0,3.109414E1,5.1544662E1,1.8939316E1,6.095604E0,1.28503685E1,9.683603E0,3.371582E-1,1.8874882E1,0E0,0E0,0E0,0E0,0E0,0E0,0E0,0E0,0E0,0E0,0E0,0E0,0E0,0E0,0E0,0E0,0E0,0E0,0E0,0E0,0E0,0E0,0E0,0E0,0E0,0E0,0E0,0E0,0E0,0E0,0E0,0E0,0E0,0E0,0E0,0E0,0E0,0E0,0E0,0E0,0E0,0E0,0E0,0E0,0E0,0E0,0E0,0E0,0E0,0E0,0E0,0E0],"parents":[2147483647,0,0,1,1,2,2,3,3,4,4,5,5,6,6,7,7,8,8,9,9,10,10,11,11,12,12,13,13,14,14,15,15,16,16,17,17,18,18,19,19,20,20,21,21,22,22,23,23,24,24,25,25,26,26,27,27,28,28,29,29,30,30,31,31,32,32,33,33,34,34,35,35,37,37,38,38,39,39,40,40,42,42,43,43,44,44,47,47,48,48,49,49,51,51,52,52,53,53,55,55,56,56,57,57,58,58,59,59,60,60,61,61,62,62],"right_children":[2,4,6,8,10,12,14,16,18,20,22,24,26,28,30,32,34,36,38,40,42,44,46,48,50,52,54,56,58,60,62,64,66,68,70,72,-1,74,76,78,80,-1,82,84,86,-1,-1,88,90,92,-1,94,96,98,-1,100,102,104,106,108,110,112,114,-1,-1,-1,-1,-1,-1,-1,-1,-1,-1,-1,-1,-1,-1,-1,-1,-1,-1,-1,-1,-1,-1,-1,-1,-1,-1,-1,-1,-1,-1,-1,-1,-1,-1,-1,-1,-1,-1,-1,-1,-1,-1,-1,-1,-1,-1,-1,-1,-1,-1,-1,-1],"split_conditions":[9.222238E-1,-3.580868E-1,-7.197209E-1,-2.8771058E-1,-3.0418888E-2,-8.916122E-1,-1.904203E-2,6.0312283E-1,-6.240198E-1,-3.3116797E-1,4.6840606E0,-1.20868005E-1,-5.7211757E-1,-3.4610984E-1,-1.6324104E-1,-3.242295E-1,4.2158008E-1,1.828196E-1,-1.9998458E-1,2.0240052E0,-5.777402E-1,6.0312283E-1,3.203552E-1,-3.7778547E-1,-7.362705E-1,-1.4269586E-1,-1.0149068E-2,2.0240052E0,-1.2171385E-1,1.6904103E0,-3.7872997E-1,-4.533551E-1,-1.4699547E-1,-9.9771544E-2,-3.242295E-1,-7.954126E-1,-3E-1,-2.0951596E-1,-2.1769844E-2,-3.6423472E-1,-2.5912777E-1,-3E-1,-5.7455266E-1,2.2499542E0,-2.8771058E-1,-2.1157119E-1,3E-1,-9.262879E-1,2.2025344E0,-8.626388E-1,-3E-1,-8.114828E-1,-3.7985504E-1,-3.7992278E-1,-3E-1,1.9464723E0,-3.7215728E-1,-2.5361848E-1,2.0240052E0,-3.0071184E-1,6.287735E-2,1.178286E0,-3.785759E-1,-1.5054157E-1,-2.8779295E-1,2.775793E-1,-1.4188556E-1,1.3641342E-2,-2.9461756E-1,3E-1,-3E-1,-3E-1,1.2409737E-1,-2.018569E-1,3E-1,-3E-1,-2.170243E-1,5.1326703E-2,-5.224124E-2,2.1524787E-1,-3E-1,3E-1,-1.030817E-1,-3E-1,-1.0886755E-1,-2.8805462E-1,-5.8448266E-2,2.8284025E-1,1.7918587E-1,2.632181E-1,-2.1460386E-1,-1.3903502E-1,1.2885047E-1,2.4495311E-1,1.1512494E-1,-8.104761E-2,1.1770287E-1,-1.11263745E-1,6.6760786E-2,1.2262328E-1,-2.5224504E-1,-6.690488E-2,1.5759136E-1,-1.3961981E-1,1.7010243E-1,-3E-1,-5.7123158E-2,2.9914784E-1,-3E-1,1.370316E-1,-3E-1,-1.7763357E-1,-3E-1,2.6162133E-1,-1.8927343E-1],"split_indices":[5,5,0,4,2,3,0,6,0,3,0,2,1,4,2,4,0,4,1,6,1,6,4,4,0,2,2,6,2,5,4,0,2,2,4,0,0,1,2,4,1,0,1,3,4,0,0,3,5,0,0,0,4,4,0,5,4,0,6,4,0,5,4,0,0,0,0,0,0,0,0,0,0,0,0,0,0,0,0,0,0,0,0,0,0,0,0,0,0,0,0,0,0,0,0,0,0,0,0,0,0,0,0,0,0,0,0,0,0,0,0,0,0,0,0],"split_type":[0,0,0,0,0,0,0,0,0,0,0,0,0,0,0,0,0,0,0,0,0,0,0,0,0,0,0,0,0,0,0,0,0,0,0,0,0,0,0,0,0,0,0,0,0,0,0,0,0,0,0,0,0,0,0,0,0,0,0,0,0,0,0,0,0,0,0,0,0,0,0,0,0,0,0,0,0,0,0,0,0,0,0,0,0,0,0,0,0,0,0,0,0,0,0,0,0,0,0,0,0,0,0,0,0,0,0,0,0,0,0,0,0,0,0],"sum_hessian":[6.1535283E3,2.919228E3,3.2343005E3,1.4017646E3,1.5174634E3,1.6216776E3,1.6126229E3,6.072779E2,7.944867E2,1.3030226E3,2.1444078E2,8.408885E2,7.807891E2,1.3797155E3,2.3290746E2,4.1665594E2,1.9062196E2,1.0537328E2,6.8911346E2,9.020928E2,4.0092978E2,2.1103986E2,3.4009225E0,7.4112476E2,9.9763725E1,4.1751108E2,3.6327808E2,1.2571835E3,1.2253201E2,4.3830242E1,1.8907721E2,2.8559143E2,1.310645E2,1.4927292E2,4.1349037E1,7.085188E1,3.45214E1,2.8110004E2,4.0801343E2,8.179916E2,8.410124E1,3.299395E1,3.6793582E2,1.1652408E2,9.4515785E1,1.6501492E0,1.7507733E0,3.077509E2,4.3337387E2,9.844469E1,1.3190335E0,2.4405655E2,1.7345454E2,3.5255856E2,1.0719489E1,7.475714E2,5.0961206E2,7.898959E1,4.354242E1,3.35473E1,1.0282943E1,3.8257217E1,1.5081999E2,8.565631E1,1.9993513E2,3.5443302E1,9.562119E1,1.0430152E2,4.4971397E1,3.453162E1,6.817415E0,1.3393837E1,5.7458046E1,2.7438232E2,6.7177052E0,2.1950575E2,1.8850766E2,3.6572897E2,4.522626E2,8.146997E1,2.6312685E0,6.6021338E0,3.6133368E2,1.0341316E2,1.3110923E1,4.5684456E1,4.8831326E1,6.0043537E1,2.4770735E2,4.3213144E2,1.2424256E0,1.1627037E1,8.681765E1,1.6825966E2,7.579688E1,2.4664062E1,1.4879048E2,4.8028473E1,3.045301E2,7.280028E2,1.9568577E1,3.9024057E2,1.19371475E2,5.3617226E1,2.5372366E1,3.371662E1,9.825798E0,3.122323E1,2.3240674E0,4.739068E0,5.5438743E0,7.0371604E0,3.1220058E1,8.018836E0,1.4280116E2],"tree_param":{"num_deleted":"0","num_feature":"7","num_nodes":"115","size_leaf_vector":"0"}},{"base_weights":[-2.3809347E-2,-3.0474398E-1,2.2646417E-1,-1.6239393E-1,-5.23263E-1,3.8064373E-1,-5.236411E-2,-9.294031E-2,-7.4990094E-1,1.0096671E-1,-5.5774736E-1,5.32047E-1,1.23154804E-1,-1.0954538E-2,-1E0,-1.3645722E-1,5.1025814E-1,-9.936828E-1,-6.367169E-2,7.849779E-1,-3E-1,-9.0915155E-1,-5.070993E-1,6.851014E-1,3.4079397E-1,1.7763236E-1,-1E0,4.1846097E-2,-5.6916374E-1,-3E-1,-5.3523827E-1,1.059684E-1,-2.4754898E-1,1.3848902E-1,7.2791266E-1,-1E0,1E0,1E0,-3.4438974E-1,2.086436E-2,1E0,5.1835406E-1,-9.6920025E-1,-4.270605E-1,-8.353374E-1,6.9746596E-1,-8.972373E-1,3.8604566E-1,-1.4600894E-1,2.6317775E-1,-1.2586808E-1,-3E-1,-2.9450455E-1,7.012524E-2,-9.4719666E-1,-1E0,-3.3520418E-1,2.969749E-1,-3E-1,1.6381231E-1,-5.7356656E-2,-2.3091403E-1,-4.8659466E-2,1.3417049E-1,-3E-1,2.67334E-1,2.0287896E-3,1.6216809E-1,-3E-1,-2.1719982E-1,3E-1,3E-1,-2.548851E-1,-3E-1,1.673075E-1,2.2841644E-1,-3E-1,-3E-1,3E-1,3E-1,-2.4854381E-1,-3E-1,2.4434367E-1,-2.575238E-1,-1.0748731E-1,7.490783E-2,-2.7716222E-1,2.1263325E-1,-3E-1,2.9497817E-1,-3E-1,1.5071264E-1,4.1260272E-2,4.6283785E-2,-2.6664314E-1,9.2073165E-2,-9.1873474E-2,-1.8534422E-1,4.3270968E-2,3E-1,-3E-1,2.62944E-2,-3E-1,-3E-1,1.4396685E-1,-8.9259386E-2,-3E-1,1.1047406E-1,-2.004449E-1],"categories":[],"categories_nodes":[],"categories_segments":[],"categories_sizes":[],"default_left":[false,false,false,false,false,false,false,false,false,false,false,false,false,false,false,false,false,false,false,false,false,false,false,false,false,false,false,false,false,false,false,false,false,false,false,false,false,false,false,false,false,false,false,false,false,false,false,false,false,false,false,false,false,false,false,false,false,false,false,false,false,false,false,false,false,false,false,false,false,false,false,false,false,false,false,false,false,false,false,false,false,false,false,false,false,false,false,false,false,false,false,false,false,false,false,false,false,false,false,false,false,false,false,false,false,false,false,false,false],"id":8,"left_children":[1,3,5,7,9,11,13,15,17,19,21,23,25,27,29,31,33,35,37,39,-1,41,43,45,47,49,51,53,55,-1,57,59,61,63,65,67,69,71,73,75,77,79,81,83,85,87,89,91,93,95,97,-1,99,101,103,105,107,-1,-1,-1,-1,-1,-1,-1,-1,-1,-1,-1,-1,-1,-1,-1,-1,-1,-1,-1,-1,-1,-1,-1,-1,-1,-1,-1,-1,-1,-1,-1,-1,-1,-1,-1,-1,-1,-1,-1,-1,-1,-1,-1,-1,-1,-1,-1,-1,-1,-1,-1,-1],"loss_changes":[3.9794202E2,8.286011E1,1.2870015E2,6.5875206E1,2.2688873E1,7.508121E1,4.385526E1,3.803679E1,2.8495514E1,4.6993103E1,1.727472E1,3.5289764E1,5.0707436E1,3.0237146E1,1.931366E0,3.6380154E1,7.7917347E0,2.1688087E1,1.5246973E1,1.6557076E1,0E0,1.1154999E1,2.2584656E1,1.3795013E1,1.1983749E1,1.7888042E1,4.1714096E0,2.6285913E1,1.1106991E1,0E0,1.2285168E1,5.5667812E1,4.1143208E1,1.5867878E1,7.206814E0,9.017563E0,6.951082E0,1.2550307E1,2.506704E1,1.6824251E1,2.1060051E1,8.772053E0,9.25927E0,2.0578476E1,1.6575478E1,1.3896484E1,1.1071239E1,1.4260437E1,1.0570774E1,1.346191E1,2.0272104E1,0E0,1.6426102E1,1.9214775E1,1.1209225E1,2.2690773E0,1.5382627E1,0E0,0E0,0E0,0E0,0E0,0E0,0E0,0E0,0E0,0E0,0E0,0E0,0E0,0E0,0E0,0E0,0E0,0E0,0E0,0E0,0E0,0E0,0E0,0E0,0E0,0E0,0E0,0E0,0E0,0E0,0E0,0E0,0E0,0E0,0E0,0E0,0E0,0E0,0E0,0E0,0E0,0E0,0E0,0E0,0E0,0E0,0E0,0E0,0E0,0E0,0E0,0E0],"parents":[2147483647,0,0,1,1,2,2,3,3,4,4,5,5,6,6,7,7,8,8,9,9,10,10,11,11,12,12,13,13,14,14,15,15,16,16,17,17,18,18,19,19,21,21,22,22,23,23,24,24,25,25,26,26,27,27,28,28,30,30,31,31,32,32,33,33,34,34,35,35,36,36,37,37,38,38,39,39,40,40,41,41,42,42,43,43,44,44,45,45,46,46,47,47,48,48,49,49,50,50,52,52,53,53,54,54,55,55,56,56],"right_children":[2,4,6,8,10,12,14,16,18,20,22,24,26,28,30,32,34,36,38,40,-1,42,44,46,48,50,52,54,56,-1,58,60,62,64,66,68,70,72,74,76,78,80,82,84,86,88,90,92,94,96,98,-1,100,102,104,106,108,-1,-1,-1,-1,-1,-1,-1,-1,-1,-1,-1,-1,-1,-1,-1,-1,-1,-1,-1,-1,-1,-1,-1,-1,-1,-1,-1,-1,-1,-1,-1,-1,-1,-1,-1,-1,-1,-1,-1,-1,-1,-1,-1,-1,-1,-1,-1,-1,-1,-1,-1,-1],"split_conditions":[9.222238E-1,-2.8538388E-1,-5.1530623E-1,-1.0149068E-2,-7.805851E-1,-1.389011E-1,6.7493093E-1,2.0240052E0,1.1363299E0,-1.3370569E-1,-5.482099E-1,-8.8738775E-1,-1.0595273E-1,-4.5287494E-2,2.3553197E0,-7.749757E-1,-7.8871924E-1,-2.8771058E-1,1.3005061E0,-8.1656265E-1,-3E-1,-6.446442E-1,8.657372E-1,1.2675598E-1,-5.3535527E-1,-8.04107E-2,-3.689264E-1,1.9396135E-1,-4.2021838E-1,-3E-1,-1.4952219E-1,-5.796631E-1,-6.7113173E-1,-6.352579E-1,-3.5317993E-1,-6.388253E-1,6.0312283E-1,3.5656292E-2,2.7408928E-1,-8.6889154E-1,-2.4273822E-1,-5.558593E-1,2.0240052E0,-7.2924733E-1,-1.531455E-1,-3.293618E-1,1.178286E0,-6.273648E-1,-3.7509152E-1,-6.3197005E-1,-8.2965064E-1,-3E-1,-3.6423472E-1,2.2025344E0,6.299712E-2,-3.9455052E-2,-3.5976946E-1,2.969749E-1,-3E-1,1.6381231E-1,-5.7356656E-2,-2.3091403E-1,-4.8659466E-2,1.3417049E-1,-3E-1,2.67334E-1,2.0287896E-3,1.6216809E-1,-3E-1,-2.1719982E-1,3E-1,3E-1,-2.548851E-1,-3E-1,1.673075E-1,2.2841644E-1,-3E-1,-3E-1,3E-1,3E-1,-2.4854381E-1,-3E-1,2.4434367E-1,-2.575238E-1,-1.0748731E-1,7.490783E-2,-2.7716222E-1,2.1263325E-1,-3E-1,2.9497817E-1,-3E-1,1.5071264E-1,4.1260272E-2,4.6283785E-2,-2.6664314E-1,9.2073165E-2,-9.1873474E-2,-1.8534422E-1,4.3270968E-2,3E-1,-3E-1,2.62944E-2,-3E-1,-3E-1,1.4396685E-1,-8.9259386E-2,-3E-1,1.1047406E-1,-2.004449E-1],"split_indices":[5,4,1,2,0,2,0,6,1,4,1,3,0,2,0,3,3,4,1,0,0,1,1,0,1,2,4,3,1,0,2,1,3,0,1,1,6,0,0,0,4,0,6,3,2,4,5,0,4,3,3,0,4,5,4,2,1,0,0,0,0,0,0,0,0,0,0,0,0,0,0,0,0,0,0,0,0,0,0,0,0,0,0,0,0,0,0,0,0,0,0,0,0,0,0,0,0,0,0,0,0,0,0,0,0,0,0,0,0],"split_type":[0,0,0,0,0,0,0,0,0,0,0,0,0,0,0,0,0,0,0,0,0,0,0,0,0,0,0,0,0,0,0,0,0,0,0,0,0,0,0,0,0,0,0,0,0,0,0,0,0,0,0,0,0,0,0,0,0,0,0,0,0,0,0,0,0,0,0,0,0,0,0,0,0,0,0,0,0,0,0,0,0,0,0,0,0,0,0,0,0,0,0,0,0,0,0,0,0,0,0,0,0,0,0,0,0,0,0,0,0],"sum_hessian":[5.6578E3,2.6655144E3,2.9922854E3,1.615119E3,1.0503955E3,1.9265978E3,1.0656875E3,1.445405E3,1.6971397E2,5.4888382E1,9.955071E2,1.2125521E3,7.1404565E2,1.0240912E3,4.1596382E1,1.3488667E3,9.653834E1,1.24896614E2,4.4817364E1,3.532506E1,1.956332E1,1.232725E2,8.7223456E2,6.721039E2,5.4044824E2,6.867044E2,2.7341217E1,9.364391E2,8.7652115E1,2.9025476E1,1.2570906E1,4.2389172E2,9.249749E2,3.625262E1,6.0285717E1,1.2144154E2,3.4550774E0,8.1470995E0,3.667026E1,1.90651E1,1.6259964E1,4.668095E0,1.1860441E2,7.030913E2,1.691433E2,6.6744763E2,4.6562796E0,4.9467203E2,4.5776222E1,5.35812E2,1.5089243E2,1.79511E1,9.390117E0,9.113115E2,2.5127516E1,2.4024078E1,6.3628033E1,3.0953248E0,9.475581E0,1.7052159E2,2.5337013E2,1.2882469E2,7.961502E2,3.0106936E1,6.145685E0,4.8968227E1,1.13174925E1,3.2208998E0,1.1822064E2,1.6751741E0,1.7799032E0,5.186276E0,2.9608235E0,2.0254091E1,1.6416172E1,1.1485262E1,7.579837E0,4.385931E0,1.1874033E1,2.3519607E0,2.3161345E0,1.16453835E2,2.1505668E0,9.510003E1,6.079913E2,1.2623244E1,1.5652005E2,6.637288E2,3.7188127E0,2.0841537E0,2.572126E0,3.3624982E2,1.5842221E2,3.316222E1,1.2614004E1,4.980238E2,3.7788197E1,5.3026707E1,9.786572E1,3.8112907E0,5.5788255E0,8.992404E2,1.2071113E1,2.0519451E1,4.608064E0,5.6247764E0,1.8399302E1,2.0406633E1,4.32214E1],"tree_param":{"num_deleted":"0","num_feature":"7","num_nodes":"109","size_leaf_vector":"0"}},{"base_weights":[-2.105027E-2,1.4702168E-1,-2.9833442E-1,3.072067E-1,-9.856977E-2,-2.4216057E-1,-6.5000415E-1,4.1990203E-1,2.5872497E-2,-5.3035777E-2,-9.41846E-1,-1.8415053E-1,-7.478092E-1,-9.2997545E-1,-2.4611686E-1,4.3368098E-1,-3E-1,7.2835445E-2,-8.061994E-1,-2.9031193E-1,7.4743696E-2,5.770821E-2,-3E-1,-2.0279986E-1,7.371754E-1,3.7889314E-1,-8.358998E-1,-9.815991E-1,-2.4443117E-1,7.869091E-1,-5.435628E-1,5.47763E-1,2.6272142E-1,2.4259964E-1,-1.4118734E-1,-3E-1,5.7901585E-1,-7.853333E-2,-6.6770107E-1,4.571009E-2,1E0,-3E-1,3E-1,-2.145636E-1,1E0,1E0,-3.7085605E-1,-2.69533E-1,1E0,-8.7667704E-1,4.7726098E-1,-1E0,-2.4077249E-1,1E0,-2.9787815E-1,-2.9421753E-1,1E0,8.9666134E-1,-7.144E-1,1.8323016E-1,6.1864022E-2,8.537561E-2,-3E-1,3.8287528E-2,2.0062228E-1,-1.036556E-1,1.1847519E-1,3E-1,-2.802743E-1,-3E-1,3.99345E-2,-2.4524352E-1,1.23413704E-1,7.7801116E-2,-2.3574399E-2,3E-1,-3E-1,2.0951187E-2,-8.307734E-2,3E-1,-2.36682E-1,3E-1,-2.5972632E-1,3E-1,-3E-1,3E-1,-2.3637427E-1,-1.942128E-1,-3E-1,-2.2959073E-1,3E-1,-3E-1,-2.4307495E-1,2.803486E-1,-2.893857E-1,-1.979252E-1,3E-1,-2.5027624E-1,3E-1,-2.7104446E-1,3E-1,3E-1,-2.4793807E-1],"categories":[],"categories_nodes":[],"categories_segments":[],"categories_sizes":[],"default_left":[false,false,false,false,false,false,false,false,false,false,false,false,false,false,false,false,false,false,false,false,false,false,false,false,false,false,false,false,false,false,false,false,false,false,false,false,false,false,false,false,false,false,false,false,false,false,false,false,false,false,false,false,false,false,false,false,false,false,false,false,false,false,false,false,false,false,false,false,false,false,false,false,false,false,false,false,false,false,false,false,false,false,false,false,false,false,false,false,false,false,false,false,false,false,false,false,false,false,false,false,false,false,false],"id":9,"left_children":[1,3,5,7,9,11,13,15,17,19,21,23,25,27,29,31,-1,33,35,37,39,41,-1,43,45,47,49,51,53,55,57,59,61,63,65,-1,67,69,71,73,75,-1,-1,77,79,81,83,-1,85,87,89,91,93,95,-1,-1,97,99,101,-1,-1,-1,-1,-1,-1,-1,-1,-1,-1,-1,-1,-1,-1,-1,-1,-1,-1,-1,-1,-1,-1,-1,-1,-1,-1,-1,-1,-1,-1,-1,-1,-1,-1,-1,-1,-1,-1,-1,-1,-1,-1,-1,-1],"loss_changes":[2.4561539E2,1.2912222E2,3.913301E1,6.296472E1,4.9718998E1,5.0214027E1,3.068045E1,3.1537582E1,2.2299541E1,3.733837E1,8.854847E0,2.6631199E1,1.781858E1,5.460724E0,3.523165E1,2.729422E1,0E0,1.964229E1,1.5711538E1,3.439584E1,2.3713842E1,2.3060802E1,0E0,2.638488E1,2.3420399E1,1.3548337E1,9.19278E0,5.2151794E0,1.9280806E1,3.6816986E1,2.242459E1,1.801152E1,1.9162098E1,1.4677959E1,2.6355501E1,0E0,7.343886E0,5.5142197E1,2.5354996E1,2.07292E1,3.5357067E1,0E0,0E0,2.6637978E1,1.0386675E1,1.2537331E1,1.9138474E1,0E0,8.78306E0,6.8599625E0,7.33524E0,1.5409851E-1,1.0148744E1,6.0065556E0,0E0,0E0,1.2992569E1,1.7283504E1,2.1625916E1,0E0,0E0,0E0,0E0,0E0,0E0,0E0,0E0,0E0,0E0,0E0,0E0,0E0,0E0,0E0,0E0,0E0,0E0,0E0,0E0,0E0,0E0,0E0,0E0,0E0,0E0,0E0,0E0,0E0,0E0,0E0,0E0,0E0,0E0,0E0,0E0,0E0,0E0,0E0,0E0,0E0,0E0,0E0,0E0],"parents":[2147483647,0,0,1,1,2,2,3,3,4,4,5,5,6,6,7,7,8,8,9,9,10,10,11,11,12,12,13,13,14,14,15,15,17,17,18,18,19,19,20,20,21,21,23,23,24,24,25,25,26,26,27,27,28,28,29,29,30,30,31,31,32,32,33,33,34,34,36,36,37,37,38,38,39,39,40,40,43,43,44,44,45,45,46,46,48,48,49,49,50,50,51,51,52,52,53,53,56,56,57,57,58,58],"right_children":[2,4,6,8,10,12,14,16,18,20,22,24,26,28,30,32,-1,34,36,38,40,42,-1,44,46,48,50,52,54,56,58,60,62,64,66,-1,68,70,72,74,76,-1,-1,78,80,82,84,-1,86,88,90,92,94,96,-1,-1,98,100,102,-1,-1,-1,-1,-1,-1,-1,-1,-1,-1,-1,-1,-1,-1,-1,-1,-1,-1,-1,-1,-1,-1,-1,-1,-1,-1,-1,-1,-1,-1,-1,-1,-1,-1,-1,-1,-1,-1,-1,-1,-1,-1,-1,-1],"split_conditions":[-4.0916386E-1,-7.749757E-1,1.8702118E-2,-1.285972E-1,1.828196E-1,7.551454E-1,1.0662811E0,-2.3733684E-1,-3.2220554E-1,6.0312283E-1,-1.5257038E-1,6.515579E-1,-3.5178488E-1,3.1668873E0,1.3841082E0,-7.580934E-1,-3E-1,2.0240052E0,1.178286E0,3.0133199E-2,1.2820678E0,-1.531455E-1,-3E-1,1.4065583E-2,6.287735E-2,-6.141489E-1,4.6840606E0,1.6904103E0,-7.0604676E-1,2.7408928E-1,-1.1262732E0,-8.4749484E-1,-2.9833663E-1,-8.210504E-1,-3.7215728E-1,-3E-1,-1.12651005E-1,-6.640718E-1,1.3809042E0,-5.657915E-1,8.0370706E-1,-3E-1,3E-1,-1.6289903E-1,3.5656292E-2,6.0312283E-1,-3.4328738E-1,-2.69533E-1,1.5403745E-1,1.3253802E0,1.5403745E-1,1.5403745E-1,-2.4667959E-1,-7.2479033E-1,-2.9787815E-1,-2.9421753E-1,6.444216E-2,1.2672037E0,-3.7335417E-1,1.8323016E-1,6.1864022E-2,8.537561E-2,-3E-1,3.8287528E-2,2.0062228E-1,-1.036556E-1,1.1847519E-1,3E-1,-2.802743E-1,-3E-1,3.99345E-2,-2.4524352E-1,1.23413704E-1,7.7801116E-2,-2.3574399E-2,3E-1,-3E-1,2.0951187E-2,-8.307734E-2,3E-1,-2.36682E-1,3E-1,-2.5972632E-1,3E-1,-3E-1,3E-1,-2.3637427E-1,-1.942128E-1,-3E-1,-2.2959073E-1,3E-1,-3E-1,-2.4307495E-1,2.803486E-1,-2.893857E-1,-1.979252E-1,3E-1,-2.5027624E-1,3E-1,-2.7104446E-1,3E-1,3E-1,-2.4793807E-1],"split_indices":[0,3,2,2,4,3,3,4,4,6,2,3,0,4,3,0,0,6,5,3,3,2,0,2,0,5,0,5,3,0,5,3,4,3,4,0,2,3,1,1,1,0,0,2,0,6,4,0,5,3,5,5,0,3,0,0,1,0,0,0,0,0,0,0,0,0,0,0,0,0,0,0,0,0,0,0,0,0,0,0,0,0,0,0,0,0,0,0,0,0,0,0,0,0,0,0,0,0,0,0,0,0,0],"split_type":[0,0,0,0,0,0,0,0,0,0,0,0,0,0,0,0,0,0,0,0,0,0,0,0,0,0,0,0,0,0,0,0,0,0,0,0,0,0,0,0,0,0,0,0,0,0,0,0,0,0,0,0,0,0,0,0,0,0,0,0,0,0,0,0,0,0,0,0,0,0,0,0,0,0,0,0,0,0,0,0,0,0,0,0,0,0,0,0,0,0,0,0,0,0,0,0,0,0,0,0,0,0,0],"sum_hessian":[5.268358E3,3.2804365E3,1.9879215E3,1.9852941E3,1.2951426E3,1.7155735E3,2.7234802E2,1.4171337E3,5.6816034E2,1.2298004E3,6.534207E1,1.5402356E3,1.7533786E2,1.6007959E2,1.12268425E2,1.4058357E3,1.1298045E1,5.386698E2,2.949058E1,4.3001862E2,7.9978186E2,8.009381E0,5.7332695E1,1.5104414E3,2.9794228E1,1.2475221E1,1.6286263E2,1.4846765E2,1.1611932E1,2.473132E1,8.753711E1,8.4185706E2,5.6397864E2,3.003203E2,2.3834946E2,2.332867E1,6.1619086E0,2.762206E2,1.53798E2,7.789347E2,2.0847118E1,6.974793E0,1.0345882E0,1.4998688E3,1.0572576E1,1.6667517E1,1.3126711E1,4.4789805E0,7.9962406E0,1.5828E2,4.5826397E0,1.385976E2,9.870067E0,2.588223E0,9.023709E0,8.936959E0,1.579436E1,8.831922E0,7.8705185E1,7.100829E2,1.3177415E2,5.571284E2,6.850198E0,2.375326E2,6.278772E1,1.7283174E2,6.551772E1,4.5924444E0,1.5694646E0,5.0163063E1,2.2605756E2,1.3526547E2,1.8532541E1,2.8610416E2,4.9283057E2,1.2761548E1,8.08557E0,2.6971152E2,1.2301572E3,8.01458E0,2.5579963E0,1.3778642E1,2.8888755E0,2.8286529E0,1.02980585E1,5.9358177E0,2.0604227E0,8.169319E1,7.658681E1,2.1642506E0,2.4183893E0,1.07544586E2,3.1053001E1,3.6510518E0,6.219015E0,1.543425E0,1.044798E0,3.1589007E0,1.2635459E1,4.075151E0,4.756771E0,2.6979558E0,7.600723E1],"tree_param":{"num_deleted":"0","num_feature":"7","num_nodes":"103","size_leaf_vector":"0"}},{"base_weights":[-1.4244273E-2,-3.4400257E-1,7.066445E-2,-8.80287E-1,-3.1053472E-1,1.0429884E-1,-5.732562E-1,-1E0,2.1959113E-1,1E0,-3.2611138E-1,3.5802215E-1,3.4378916E-2,5.073569E-1,-6.5986234E-1,4.9248466E-1,-1E0,3E-1,-1.9748516E-1,-1.4092563E-1,-4.539192E-1,4.796042E-1,1.2141904E-1,7.867899E-2,-1.831497E-1,1E0,-3E-1,-7.409628E-3,-8.1401634E-1,3E-1,-2.1008614E-1,1.9719987E-1,-3E-1,-3.511091E-1,1.9190235E-1,-5.043037E-1,9.906296E-2,-9.842608E-1,5.019058E-1,-6.4044833E-1,2.2109157E-1,1.0214605E-1,-4.4907162E-1,-9.2311126E-1,-1.17296845E-1,8.606308E-2,1E0,-3E-1,7.164072E-1,-8.444024E-1,1.4831372E-1,-2.0940949E-3,-2.2196445E-1,-3E-1,1.2567988E-1,-1.589357E-1,2.0968993E-1,3E-1,-2.0416333E-1,2.8859658E-2,-3E-1,9.7324125E-2,1.9109982E-1,-3E-1,2.4768257E-1,3.3402722E-2,2.949569E-1,8.550537E-2,1.7421389E-2,-2.3787874E-1,1.7611665E-1,-3E-1,1.5192483E-1,3E-1,-5.1517718E-2,9.278672E-2,3E-1,3E-1,-2.7997172E-1,1.9041532E-1,-2.6126134E-1],"categories":[],"categories_nodes":[],"categories_segments":[],"categories_sizes":[],"default_left":[false,false,false,false,false,false,false,false,false,false,false,false,false,false,false,false,false,false,false,false,false,false,false,false,false,false,false,false,false,false,false,false,false,false,false,false,false,false,false,false,false,false,false,false,false,false,false,false,false,false,false,false,false,false,false,false,false,false,false,false,false,false,false,false,false,false,false,false,false,false,false,false,false,false,false,false,false,false,false,false,false],"id":10,"left_children":[1,3,5,7,9,11,13,15,-1,17,19,21,23,25,27,29,31,-1,-1,33,35,37,39,41,43,45,-1,47,49,-1,-1,-1,-1,51,53,55,57,59,61,63,65,67,69,71,73,-1,75,-1,77,79,-1,-1,-1,-1,-1,-1,-1,-1,-1,-1,-1,-1,-1,-1,-1,-1,-1,-1,-1,-1,-1,-1,-1,-1,-1,-1,-1,-1,-1,-1,-1],"loss_changes":[1.3946257E2,1.8032173E1,8.5849846E1,1.2471348E1,2.9761253E1,6.678636E1,1.8751808E1,1.0810978E1,0E0,5.4127007E0,2.2576431E1,2.3339508E1,2.847107E1,1.3602026E1,1.836174E1,5.254233E0,6.1237946E0,0E0,0E0,2.7493788E1,1.5806236E1,1.8023117E1,2.1208567E1,3.0438866E1,2.4252724E1,7.4329853E-1,0E0,2.6830105E1,6.2899857E0,0E0,0E0,0E0,0E0,3.219188E1,4.6300186E1,1.6267075E1,3.7513798E1,4.528371E0,1.2490723E1,2.4193666E1,2.0472038E1,1.8927765E1,3.7754677E1,7.417053E0,3.7421898E1,0E0,6.759367E-1,0E0,2.4823502E1,6.218895E0,0E0,0E0,0E0,0E0,0E0,0E0,0E0,0E0,0E0,0E0,0E0,0E0,0E0,0E0,0E0,0E0,0E0,0E0,0E0,0E0,0E0,0E0,0E0,0E0,0E0,0E0,0E0,0E0,0E0,0E0,0E0],"parents":[2147483647,0,0,1,1,2,2,3,3,4,4,5,5,6,6,7,7,9,9,10,10,11,11,12,12,13,13,14,14,15,15,16,16,19,19,20,20,21,21,22,22,23,23,24,24,25,25,27,27,28,28,33,33,34,34,35,35,36,36,37,37,38,38,39,39,40,40,41,41,42,42,43,43,44,44,46,46,48,48,49,49],"right_children":[2,4,6,8,10,12,14,16,-1,18,20,22,24,26,28,30,32,-1,-1,34,36,38,40,42,44,46,-1,48,50,-1,-1,-1,-1,52,54,56,58,60,62,64,66,68,70,72,74,-1,76,-1,78,80,-1,-1,-1,-1,-1,-1,-1,-1,-1,-1,-1,-1,-1,-1,-1,-1,-1,-1,-1,-1,-1,-1,-1,-1,-1,-1,-1,-1,-1,-1,-1],"split_conditions":[-3.580868E-1,-6.0821927E-1,-5.9157466E-3,2.0240052E0,-6.066111E-1,-8.134989E-1,-6.289976E-1,-6.446442E-1,2.1959113E-1,-1.9703208E-1,-2.820563E-1,-8.528199E-1,-3.9174598E-1,-3.7233323E-1,-1.02024674E-1,-5.558593E-1,-8.83361E-1,3E-1,-1.9748516E-1,-4.2887446E-1,2.0131474E0,4.1009957E-1,6.0312283E-1,-2.0951596E-1,-5.817368E-1,-6.407796E-1,-3E-1,5.8112764E-1,2.9707208E0,3E-1,-2.1008614E-1,1.9719987E-1,-3E-1,-1.2355973E-1,-1.5350157E-1,6.631556E-1,-2.0566449E-1,-6.127108E-1,-3.7717894E-1,-2.7456567E-1,-3.0994713E-1,-9.113902E-1,-2.7831793E-1,-2.7508149E-2,-5.7455266E-1,8.606308E-2,-3.7879285E-1,-3E-1,1.3005061E0,-9.283595E-1,1.4831372E-1,-2.0940949E-3,-2.2196445E-1,-3E-1,1.2567988E-1,-1.589357E-1,2.0968993E-1,3E-1,-2.0416333E-1,2.8859658E-2,-3E-1,9.7324125E-2,1.9109982E-1,-3E-1,2.4768257E-1,3.3402722E-2,2.949569E-1,8.550537E-2,1.7421389E-2,-2.3787874E-1,1.7611665E-1,-3E-1,1.5192483E-1,3E-1,-5.1517718E-2,9.278672E-2,3E-1,3E-1,-2.7997172E-1,1.9041532E-1,-2.6126134E-1],"split_indices":[5,1,2,6,1,0,1,1,0,0,1,3,3,4,5,0,0,0,0,1,1,5,6,1,1,1,0,3,5,0,0,0,0,2,2,2,4,1,4,4,1,3,4,2,1,0,4,0,1,3,0,0,0,0,0,0,0,0,0,0,0,0,0,0,0,0,0,0,0,0,0,0,0,0,0,0,0,0,0,0,0],"split_type":[0,0,0,0,0,0,0,0,0,0,0,0,0,0,0,0,0,0,0,0,0,0,0,0,0,0,0,0,0,0,0,0,0,0,0,0,0,0,0,0,0,0,0,0,0,0,0,0,0,0,0,0,0,0,0,0,0,0,0,0,0,0,0,0,0,0,0,0,0,0,0,0,0,0,0,0,0,0,0,0,0],"sum_hessian":[4.9790527E3,1.018904E3,3.9601484E3,5.836523E1,9.6053876E2,3.7643599E3,1.957886E2,5.4590748E1,3.7744846E0,4.9638476E0,9.5557495E2,8.123625E2,2.9519973E3,1.4166795E1,1.8162181E2,4.302318E0,5.028843E1,3.6318765E0,1.3319709E0,3.910582E2,5.645167E2,5.359365E2,2.7642603E2,2.453065E3,4.9893256E2,1.1049856E1,3.1169393E0,3.4910805E1,1.46711E2,2.6665437E0,1.6357745E0,1.5935361E0,4.8694893E1,2.3965762E2,1.5140057E2,5.174571E2,4.7059635E1,7.395059E0,5.2854144E2,3.1352354E1,2.4507365E2,2.3494023E3,1.03662544E2,3.970998E1,4.5922256E2,2.4280171E0,8.621839E0,1.4454742E1,2.0456062E1,1.437277E2,2.9832864E0,1.2766799E2,1.11989624E2,2.1373926E1,1.3002664E2,5.0727417E2,1.0182959E1,2.0610306E1,2.644933E1,3.6023722E0,3.792687E0,2.2989554E2,2.986459E2,2.3538239E1,7.814115E0,2.1522533E2,2.9848337E1,4.5521024E2,1.894192E3,7.8008675E1,2.5653873E1,3.689481E1,2.8151696E0,1.377826E1,4.454443E2,2.512889E0,6.1089497E0,1.4084894E1,6.3711686E0,2.122785E0,1.4160493E2],"tree_param":{"num_deleted":"0","num_feature":"7","num_nodes":"81","size_leaf_vector":"0"}},{"base_weights":[-1.2306367E-2,9.193437E-2,-1.8511277E-1,1.8753844E-1,-8.640527E-2,-1.5597235E-1,-6.308752E-1,2.1318017E-1,-6.789311E-1,-5.1671285E-2,-3E-1,-1.2620027E-1,-7.5499576E-1,-3E-1,-1.7318344E-1,2.3063873E-1,-6.492226E-1,-3E-1,4.6196524E-2,-8.06286E-2,1E0,-5.320904E-1,-8.771796E-2,-3E-1,3.5949145E-2,3E-1,-3.1958437E-1,2.4145538E-1,-9.8944455E-1,-3E-1,4.8058042E-1,-3E-1,1E0,-3.6777228E-2,-5.691418E-1,-2.495966E-1,1E0,-9.137699E-3,-1E0,-9.845035E-2,1E0,-2.9346994E-1,6.3622856E-1,9.213123E-1,-6.064433E-1,1.12824626E-1,4.866839E-2,-3E-1,3.4254745E-2,-3E-1,3E-1,3E-1,-2.7811202E-1,-6.0527166E-3,-3E-1,2.6570277E-2,-2.512688E-1,3E-1,-2.0146722E-1,8.7610915E-2,-2.981096E-1,-7.813176E-2,-3E-1,-2.5368048E-2,-3E-1,-2.7420986E-1,3E-1,3E-1,-2.6539418E-1,-2.6296985E-1,3E-1,2.20337E-1,-3E-1],"categories":[],"categories_nodes":[],"categories_segments":[],"categories_sizes":[],"default_left":[false,false,false,false,false,false,false,false,false,false,false,false,false,false,false,false,false,false,false,false,false,false,false,false,false,false,false,false,false,false,false,false,false,false,false,false,false,false,false,false,false,false,false,false,false,false,false,false,false,false,false,false,false,false,false,false,false,false,false,false,false,false,false,false,false,false,false,false,false,false,false,false,false],"id":11,"left_children":[1,3,5,7,9,11,13,15,17,19,-1,21,23,-1,25,27,29,-1,31,33,35,37,39,-1,41,-1,43,45,47,-1,49,-1,51,53,55,-1,57,59,61,63,65,-1,67,69,71,-1,-1,-1,-1,-1,-1,-1,-1,-1,-1,-1,-1,-1,-1,-1,-1,-1,-1,-1,-1,-1,-1,-1,-1,-1,-1,-1,-1],"loss_changes":[8.576601E1,5.0652275E1,2.3171535E1,4.3107628E1,3.413232E1,2.9916409E1,2.085225E1,2.8438995E1,1.5887758E1,4.04727E1,0E0,2.5012505E1,1.9095863E1,0E0,1.4627353E1,2.4552864E1,2.1555927E1,0E0,3.1744026E1,2.106207E1,1.19161415E1,4.3995434E1,1.967076E1,0E0,1.472857E1,0E0,1.8892818E1,1.942566E1,8.364094E0,0E0,2.6996931E1,0E0,1.2642019E1,1.5009504E1,1.437388E1,0E0,6.2558784E0,2.3053488E1,3.658142E0,1.8957567E1,2.1382324E1,0E0,1.4794624E1,1.808484E1,2.5257288E1,0E0,0E0,0E0,0E0,0E0,0E0,0E0,0E0,0E0,0E0,0E0,0E0,0E0,0E0,0E0,0E0,0E0,0E0,0E0,0E0,0E0,0E0,0E0,0E0,0E0,0E0,0E0,0E0],"parents":[2147483647,0,0,1,1,2,2,3,3,4,4,5,5,6,6,7,7,8,8,9,9,11,11,12,12,14,14,15,15,16,16,18,18,19,19,20,20,21,21,22,22,24,24,26,26,27,27,28,28,30,30,32,32,33,33,34,34,36,36,37,37,38,38,39,39,40,40,42,42,43,43,44,44],"right_children":[2,4,6,8,10,12,14,16,18,20,-1,22,24,-1,26,28,30,-1,32,34,36,38,40,-1,42,-1,44,46,48,-1,50,-1,52,54,56,-1,58,60,62,64,66,-1,68,70,72,-1,-1,-1,-1,-1,-1,-1,-1,-1,-1,-1,-1,-1,-1,-1,-1,-1,-1,-1,-1,-1,-1,-1,-1,-1,-1,-1,-1],"split_conditions":[-4.0916386E-1,-1.2355973E-1,1.2013918E-1,-2.1184452E-1,1.828196E-1,1.3841082E0,1.2820678E0,2.631668E-1,1.5403745E-1,6.299712E-2,-3E-1,-3.5923192E-1,6.0312283E-1,-3E-1,1.3253802E0,2.2025344E0,4.2396963E-1,-3E-1,-1.9811133E-1,3.511187E-2,-7.008267E-1,-1.3963643E-1,1.8494925E0,-3E-1,8.0370706E-1,3E-1,5.029986E-1,-8.916122E-1,2.9707208E0,-3E-1,-2.9833663E-1,-3E-1,6.661617E-1,1.4528248E0,-7.0604676E-1,-2.495966E-1,8.0370706E-1,-4.2887446E-1,-3.8038576E-1,1.2137412E0,1.2226958E0,-2.9346994E-1,2.2089257E0,1.347762E0,-3.4214914E-1,1.12824626E-1,4.866839E-2,-3E-1,3.4254745E-2,-3E-1,3E-1,3E-1,-2.7811202E-1,-6.0527166E-3,-3E-1,2.6570277E-2,-2.512688E-1,3E-1,-2.0146722E-1,8.7610915E-2,-2.981096E-1,-7.813176E-2,-3E-1,-2.5368048E-2,-3E-1,-2.7420986E-1,3E-1,3E-1,-2.6539418E-1,-2.6296985E-1,3E-1,2.20337E-1,-3E-1],"split_indices":[0,2,2,4,4,3,3,3,5,4,0,0,6,0,3,5,1,0,3,2,0,2,1,0,1,0,1,3,5,0,4,0,5,3,3,0,1,1,4,1,3,0,1,0,4,0,0,0,0,0,0,0,0,0,0,0,0,0,0,0,0,0,0,0,0,0,0,0,0,0,0,0,0],"split_type":[0,0,0,0,0,0,0,0,0,0,0,0,0,0,0,0,0,0,0,0,0,0,0,0,0,0,0,0,0,0,0,0,0,0,0,0,0,0,0,0,0,0,0,0,0,0,0,0,0,0,0,0,0,0,0,0,0,0,0,0,0,0,0,0,0,0,0,0,0,0,0,0,0],"sum_hessian":[4.7592715E3,2.9688574E3,1.7904141E3,1.9327173E3,1.03614E3,1.6818198E3,1.0859418E2,1.877898E3,5.481931E1,1.0006228E3,3.5517242E1,1.6033428E3,7.84771E1,5.5785774E1,5.28084E1,1.841354E3,3.654396E1,3.513284E1,1.968647E1,9.8317633E2,1.7446415E1,1.3773746E2,1.4656052E3,5.6306335E1,2.2170757E1,2.3026848E0,5.0505714E1,1.825968E3,1.5386036E1,2.5147041E1,1.139692E1,9.72837E0,9.958101E0,9.031779E2,7.999846E1,2.8484623E0,1.4597952E1,7.576705E1,6.19704E1,1.4542179E3,1.1387378E1,8.009293E0,1.4161465E1,9.067918E0,4.1437794E1,6.7508594E2,1.1508821E3,8.841409E0,6.5446267E0,6.7011237E0,4.695796E0,7.2844563E0,2.673645E0,8.8947345E2,1.3704438E1,2.3380194E1,5.6618263E1,1.3001098E1,1.5968546E0,5.855779E1,1.7209259E1,7.516586E0,5.4453815E1,1.434207E3,2.0010864E1,5.109511E0,6.277867E0,1.0149792E1,4.0116735E0,4.437222E0,4.6306963E0,9.913111E0,3.1524685E1],"tree_param":{"num_deleted":"0","num_feature":"7","num_nodes":"73","size_leaf_vector":"0"}},{"base_weights":[-1.0741771E-2,-2.1952248E-1,3.916264E-2,-3E-1,-1.9539474E-1,1.295799E-1,-5.939236E-2,1E0,-2.081234E-1,2.3210943E-1,-7.629907E-2,-2.6464077E-2,-3.9677683E-1,4.273377E-1,3E-1,-1E0,-1.8439999E-1,2.4579163E-1,-3E-1,-4.9901167E-1,-6.119754E-4,-2.9727006E-1,2.1616949E-2,-3E-1,-2.7430215E-1,-2.0797184E-1,3E-1,-4.0707552E-1,-3E-1,-2.7290148E-1,2.0945095E-2,2.5511947E-1,-3E-1,-6.4726365E-1,8.223035E-1,-2.567381E-1,1.5588018E-1,4.1323423E-1,-4.2067608E-1,3.2138515E-2,-3E-1,-8.609859E-2,-7.912262E-1,1.1581267E-1,-2.4727014E-1,4.8002046E-2,-1.1440984E-1,1.2813427E-1,-1.09231114E-1,6.814838E-2,2.0051523E-1,-2.2309832E-1,3E-1,3E-1,-2.9094723E-1,5.624839E-2,-1.781348E-1,3.5917774E-2,3E-1,2.503569E-1,-1.8439868E-1,-5.1668208E-2,-2.586725E-1,-5.1720664E-3,7.4251965E-2,-4.97205E-2,3E-1,-3E-1,3E-1],"categories":[],"categories_nodes":[],"categories_segments":[],"categories_sizes":[],"default_left":[false,false,false,false,false,false,false,false,false,false,false,false,false,false,false,false,false,false,false,false,false,false,false,false,false,false,false,false,false,false,false,false,false,false,false,false,false,false,false,false,false,false,false,false,false,false,false,false,false,false,false,false,false,false,false,false,false,false,false,false,false,false,false,false,false,false,false,false,false],"id":12,"left_children":[1,3,5,-1,7,9,11,13,15,17,19,21,23,25,-1,27,29,31,-1,33,35,37,39,-1,41,-1,-1,43,-1,45,47,49,-1,51,53,55,57,59,61,63,-1,65,67,-1,-1,-1,-1,-1,-1,-1,-1,-1,-1,-1,-1,-1,-1,-1,-1,-1,-1,-1,-1,-1,-1,-1,-1,-1,-1],"loss_changes":[4.783413E1,1.9378796E1,3.302784E1,0E0,1.7963593E1,4.0817776E1,1.9693949E1,5.280533E-1,1.69048E1,2.3375229E1,2.0582191E1,2.1060993E1,1.4175999E1,4.3093176E0,0E0,4.9463272E-1,1.5222713E1,1.6060066E1,0E0,1.9669361E1,2.1949953E1,2.155716E1,1.5564651E1,0E0,1.3332123E1,0E0,0E0,1.7248006E0,0E0,2.7539639E1,3.974165E1,1.4521362E1,0E0,1.8585579E1,2.1282402E1,3.1208963E1,1.6921238E1,1.635994E1,2.2701492E1,1.4486622E1,0E0,1.5169468E1,1.971624E1,0E0,0E0,0E0,0E0,0E0,0E0,0E0,0E0,0E0,0E0,0E0,0E0,0E0,0E0,0E0,0E0,0E0,0E0,0E0,0E0,0E0,0E0,0E0,0E0,0E0,0E0],"parents":[2147483647,0,0,1,1,2,2,4,4,5,5,6,6,7,7,8,8,9,9,10,10,11,11,12,12,13,13,15,15,16,16,17,17,19,19,20,20,21,21,22,22,24,24,27,27,29,29,30,30,31,31,33,33,34,34,35,35,36,36,37,37,38,38,39,39,41,41,42,42],"right_children":[2,4,6,-1,8,10,12,14,16,18,20,22,24,26,-1,28,30,32,-1,34,36,38,40,-1,42,-1,-1,44,-1,46,48,50,-1,52,54,56,58,60,62,64,-1,66,68,-1,-1,-1,-1,-1,-1,-1,-1,-1,-1,-1,-1,-1,-1,-1,-1,-1,-1,-1,-1,-1,-1,-1,-1,-1,-1],"split_conditions":[-3.580868E-1,-8.956548E-1,-1.3841996E-1,-3E-1,-8.9249796E-1,-4.88344E-1,-5.9157466E-3,1.7395504E0,-1.6969888E-1,-2.1184452E-1,1.5403745E-1,-3.7956133E-1,1.4065583E-2,2.0240052E0,3E-1,-1.7230695E-1,6.0312283E-1,3.0133199E-2,-3E-1,-1.4269586E-1,-3.754343E-1,-9.190113E-1,2.1003072E0,-3E-1,-6.727441E-2,-2.0797184E-1,3E-1,-5.796631E-1,-3E-1,-1.4699547E-1,-3.242295E-1,-1.4125594E-1,-3E-1,9.981832E-1,-1.4193165E-1,-1.6289903E-1,1.262111E0,-5.8200884E-1,2.0240052E0,-9.544226E-2,-3E-1,-7.549919E-2,4.6840606E0,1.1581267E-1,-2.4727014E-1,4.8002046E-2,-1.1440984E-1,1.2813427E-1,-1.09231114E-1,6.814838E-2,2.0051523E-1,-2.2309832E-1,3E-1,3E-1,-2.9094723E-1,5.624839E-2,-1.781348E-1,3.5917774E-2,3E-1,2.503569E-1,-1.8439868E-1,-5.1668208E-2,-2.586725E-1,-5.1720664E-3,7.4251965E-2,-4.97205E-2,3E-1,-3E-1,3E-1],"split_indices":[5,3,2,0,3,1,2,0,2,4,5,4,2,6,0,2,6,3,0,2,4,3,0,0,0,0,0,1,0,2,4,2,0,1,2,2,4,0,6,0,0,0,0,0,0,0,0,0,0,0,0,0,0,0,0,0,0,0,0,0,0,0,0,0,0,0,0,0,0],"split_type":[0,0,0,0,0,0,0,0,0,0,0,0,0,0,0,0,0,0,0,0,0,0,0,0,0,0,0,0,0,0,0,0,0,0,0,0,0,0,0,0,0,0,0,0,0,0,0,0,0,0,0,0,0,0,0,0,0,0,0,0,0,0,0,0,0,0,0,0,0],"sum_hessian":[4.5891885E3,8.8467065E2,3.7045176E3,2.0842438E1,8.638282E2,1.9318586E3,1.772659E3,5.1348104E0,8.5869336E2,1.2895327E3,6.4232587E2,1.6160164E3,1.5664264E2,3.6595201E0,1.4752903E0,2.2368267E1,8.3632513E2,1.277047E3,1.248579E1,9.66944E1,5.456315E2,2.4287767E2,1.3731387E3,1.9903236E1,1.3673941E2,1.3848021E0,2.274718E0,3.2514362E0,1.911683E1,5.842086E2,2.5211649E2,1.2689506E3,8.096361E0,8.739841E1,9.295991E0,2.0669661E2,3.3893488E2,3.559464E1,2.0728304E2,1.3608148E3,1.2323863E1,1.01097885E2,3.564152E1,1.1464157E0,2.1050205E0,1.1695164E2,4.67257E2,1.2264015E2,1.2947635E2,1.1899946E3,7.8956E1,8.4336334E1,3.0620677E0,4.4696236E0,4.8263674E0,8.936074E1,1.1733587E2,3.3471265E2,4.222231E0,2.5380453E1,1.0214187E1,1.335376E2,7.374544E1,1.1077534E3,2.5306142E2,9.952347E1,1.5744165E0,3.265639E1,2.9851286E0],"tree_param":{"num_deleted":"0","num_feature":"7","num_nodes":"69","size_leaf_vector":"0"}},{"base_weights":[-8.022094E-3,6.1414313E-2,-1.2380898E-1,7.297185E-2,-7.82792E-1,-4.3185484E-1,-9.725871E-2,6.5338954E-2,1E0,3.0353335E-1,-3E-1,1.1418582E-1,-7.4910665E-1,6.283871E-1,-1.2031957E-1,7.4382186E-2,-7.653363E-1,-2.8535178E-1,1E0,-2.7277145E-1,3E-1,4.175038E-1,-3E-1,-8.4965163E-1,1E0,3.3195358E-2,1E0,-8.827058E-2,-6.053848E-1,6.5709956E-2,1E0,-3E-1,7.820051E-1,-2.2315565E-1,1E0,5.4307085E-1,-3E-1,2.841673E-1,-9.8622006E-1,3E-1,-1.9194473E-1,6.104106E-1,-6.9512373E-1,-2.7588308E-1,1E0,-1.03975296E-1,1E0,-9.0559536E-1,1.11599125E-1,1.2757681E-1,1.3626244E-2,3E-1,-2.741706E-1,3E-1,-2.6029935E-1,3E-1,-1.9986008E-1,-2.955112E-1,2.0380877E-1,3E-1,-3E-1,-1.8420987E-1,-3E-1,-1.2224316E-1,2.9658163E-1,2.9077426E-1,-3E-1,3E-1,-2.0451704E-1,-2.3587266E-2,-3E-1,-2.6828587E-1,3E-1,-3E-1,9.528782E-2,3E-1,-9.559845E-2],"categories":[],"categories_nodes":[],"categories_segments":[],"categories_sizes":[],"default_left":[false,false,false,false,false,false,false,false,false,false,false,false,false,false,false,false,false,false,false,false,false,false,false,false,false,false,false,false,false,false,false,false,false,false,false,false,false,false,false,false,false,false,false,false,false,false,false,false,false,false,false,false,false,false,false,false,false,false,false,false,false,false,false,false,false,false,false,false,false,false,false,false,false,false,false,false,false],"id":13,"left_children":[1,3,5,7,9,11,13,15,17,19,-1,21,23,25,27,29,31,-1,33,-1,-1,35,-1,37,39,41,43,45,47,49,51,-1,53,-1,55,57,-1,59,61,-1,-1,63,65,-1,67,69,71,73,75,-1,-1,-1,-1,-1,-1,-1,-1,-1,-1,-1,-1,-1,-1,-1,-1,-1,-1,-1,-1,-1,-1,-1,-1,-1,-1,-1,-1],"loss_changes":[3.592716E1,2.7313366E1,1.3658802E1,1.9747356E1,9.8688755E0,2.3062286E1,2.5905334E1,2.0606844E1,1.8837547E1,1.60869E1,0E0,1.9996479E1,1.7995632E1,2.3198431E1,2.3216263E1,3.1737888E1,1.5372133E1,0E0,8.056255E0,0E0,0E0,8.240852E0,0E0,1.2774727E1,5.309968E0,1.4270696E1,1.2349506E1,2.9987574E1,2.0032528E1,1.9637112E1,1.8624382E1,0E0,1.4074242E1,0E0,6.3279495E0,8.700874E0,0E0,1.3640193E1,4.2552414E0,0E0,0E0,7.681166E0,1.8183155E1,0E0,6.935066E0,3.2259872E1,2.1236738E1,1.1369461E1,1.4607913E1,0E0,0E0,0E0,0E0,0E0,0E0,0E0,0E0,0E0,0E0,0E0,0E0,0E0,0E0,0E0,0E0,0E0,0E0,0E0,0E0,0E0,0E0,0E0,0E0,0E0,0E0,0E0,0E0],"parents":[2147483647,0,0,1,1,2,2,3,3,4,4,5,5,6,6,7,7,8,8,9,9,11,11,12,12,13,13,14,14,15,15,16,16,18,18,21,21,23,23,24,24,25,25,26,26,27,27,28,28,29,29,30,30,32,32,34,34,35,35,37,37,38,38,41,41,42,42,44,44,45,45,46,46,47,47,48,48],"right_children":[2,4,6,8,10,12,14,16,18,20,-1,22,24,26,28,30,32,-1,34,-1,-1,36,-1,38,40,42,44,46,48,50,52,-1,54,-1,56,58,-1,60,62,-1,-1,64,66,-1,68,70,72,74,76,-1,-1,-1,-1,-1,-1,-1,-1,-1,-1,-1,-1,-1,-1,-1,-1,-1,-1,-1,-1,-1,-1,-1,-1,-1,-1,-1,-1],"split_conditions":[-4.0916386E-1,1.828196E-1,-3.5923192E-1,6.299712E-2,-1.5257038E-1,-1.531455E-1,-3.459785E-1,-9.883667E-2,-1.0479806E-1,-1.531455E-1,-3E-1,-4.2887446E-1,2.2499542E0,-3.140789E-1,1.3841082E0,-1.23451225E-1,1.3841082E0,-2.8535178E-1,-4.1652977E-1,-2.7277145E-1,3E-1,-3.1813714E-1,-3E-1,-9.156704E-1,2.3669534E0,-8.4510547E-1,-4.3964118E-1,1.8494925E0,1.2672037E0,-9.258853E-1,-3.5317993E-1,-3E-1,1.4528248E0,-2.2315565E-1,8.0370706E-1,-9.1291785E-1,-3E-1,-1.3637055E-1,-4.6476042E-1,3E-1,-1.9194473E-1,-3.7828133E-1,-6.35798E-1,-2.7588308E-1,-6.1887912E-2,1.2013918E-1,1.2226958E0,4.1211233E0,1.4616628E0,1.2757681E-1,1.3626244E-2,3E-1,-2.741706E-1,3E-1,-2.6029935E-1,3E-1,-1.9986008E-1,-2.955112E-1,2.0380877E-1,3E-1,-3E-1,-1.8420987E-1,-3E-1,-1.2224316E-1,2.9658163E-1,2.9077426E-1,-3E-1,3E-1,-2.0451704E-1,-2.3587266E-2,-3E-1,-2.6828587E-1,3E-1,-3E-1,9.528782E-2,3E-1,-9.559845E-2],"split_indices":[0,4,0,4,2,2,0,4,2,2,0,1,3,4,3,4,3,0,1,0,0,4,0,3,3,3,3,1,0,3,1,0,3,0,1,3,0,2,1,0,0,4,1,0,2,2,3,1,0,0,0,0,0,0,0,0,0,0,0,0,0,0,0,0,0,0,0,0,0,0,0,0,0,0,0,0,0],"split_type":[0,0,0,0,0,0,0,0,0,0,0,0,0,0,0,0,0,0,0,0,0,0,0,0,0,0,0,0,0,0,0,0,0,0,0,0,0,0,0,0,0,0,0,0,0,0,0,0,0,0,0,0,0,0,0,0,0,0,0,0,0,0,0,0,0,0,0,0,0,0,0,0,0,0,0,0,0],"sum_hessian":[4.466703E3,2.7925215E3,1.6741816E3,2.7557083E3,3.681325E1,1.3163533E2,1.5425464E3,2.7346162E3,2.109193E1,6.446377E0,3.0366875E1,4.860996E1,8.302537E1,4.6703358E1,1.495843E3,2.706067E3,2.8549423E1,4.210708E0,1.6881224E1,4.67841E0,1.7679667E0,4.0099926E1,8.510034E0,7.969092E1,3.3344495E0,3.1936462E1,1.4766896E1,1.4042445E3,9.159854E1,2.69355E3,1.2516778E1,2.388131E1,4.6681123E0,1.9780302E0,1.49031925E1,3.756406E1,2.5358667E0,8.450701E0,7.124022E1,1.9878608E0,1.3465889E0,1.7906725E1,1.4029737E1,2.6227567E0,1.214414E1,1.3899734E3,1.4271055E1,6.437911E1,2.7219435E1,1.4281155E2,2.5507385E3,8.159347E0,4.357431E0,1.2693592E0,3.3987532E0,1.3263653E1,1.6395395E0,2.5660436E0,3.4998016E1,6.430405E0,2.0202956E0,3.4369083E1,3.687114E1,4.8299074E0,1.3076818E1,4.3069887E0,9.722749E0,1.033844E1,1.8057E0,1.3536614E3,3.6312073E1,5.1969776E0,9.074078E0,5.79188E1,6.4603086E0,6.434991E0,2.0784443E1],"tree_param":{"num_deleted":"0","num_feature":"7","num_nodes":"77","size_leaf_vector":"0"}},{"base_weights":[-3.3908319E-3,-3.3012974E-1,1.39233135E-2,-4.879693E-1,8.125476E-1,3.0968737E-2,-2.8717175E-1,-6.70155E-1,2.340433E-1,1E0,-2.9394755E-1,2.4831735E-2,8.5246164E-1,-4.991086E-1,2.6394263E-1,-3E-1,-5.393825E-1,1E0,-6.815833E-1,1E0,-2.4522017E-1,3.7922017E-2,-6.374616E-1,-1.0363288E-1,1E0,-2.799966E-1,-3E-1,5.9969133E-1,-2.9313993E-1,3E-1,-6.1465806E-1,2.5332877E-2,3E-1,-3E-1,1.9728214E-1,1E0,-1.9698766E-1,2.9753665E-2,1E0,1E0,-7.4316806E-1,-2.938452E-1,3E-1,1E0,-2.4687685E-1,-3.4810203E-1,3E-1,1E0,1.4361797E-1,-7.926096E-2,-2.5089937E-1,3E-1,-2.5584215E-1,-1.758893E-1,3E-1,1.0797966E-2,-3E-1,-2.8464E-1,3E-1,-2.1166967E-1,3E-1,-2.7089015E-1,3.1591795E-2,-1.9419156E-1,3E-1,1.9569331E-1,-1.4080383E-1,-2.8464168E-2,3E-1,-2.8651246E-1,2.268215E-1],"categories":[],"categories_nodes":[],"categories_segments":[],"categories_sizes":[],"default_left":[false,false,false,false,false,false,false,false,false,false,false,false,false,false,false,false,false,false,false,false,false,false,false,false,false,false,false,false,false,false,false,false,false,false,false,false,false,false,false,false,false,false,false,false,false,false,false,false,false,false,false,false,false,false,false,false,false,false,false,false,false,false,false,false,false,false,false,false,false,false,false],"id":14,"left_children":[1,3,5,7,9,11,13,15,17,19,-1,21,23,25,27,-1,29,31,33,35,-1,37,39,41,43,45,-1,47,-1,-1,49,51,-1,-1,-1,53,-1,55,57,59,61,-1,-1,63,-1,65,-1,67,69,-1,-1,-1,-1,-1,-1,-1,-1,-1,-1,-1,-1,-1,-1,-1,-1,-1,-1,-1,-1,-1,-1],"loss_changes":[2.4804031E1,4.0192062E1,2.1379988E1,2.5740292E1,3.571238E1,1.9851652E1,2.6201784E1,7.5961533E0,2.9792816E1,1.2779343E1,0E0,3.3953945E1,2.0136229E1,1.832051E1,2.669059E1,0E0,2.4069157E1,1.445207E1,9.198419E0,6.218956E0,0E0,3.2964073E1,1.5321871E1,2.6405355E1,1.3628525E1,1.5695078E1,0E0,1.3635647E1,0E0,0E0,9.01968E0,1.5214275E1,0E0,0E0,0E0,4.584015E0,0E0,2.5782736E1,2.1189026E1,7.0570755E0,9.9053E0,0E0,0E0,6.1042213E0,0E0,1.4045264E1,0E0,1.1546272E1,2.1490793E1,0E0,0E0,0E0,0E0,0E0,0E0,0E0,0E0,0E0,0E0,0E0,0E0,0E0,0E0,0E0,0E0,0E0,0E0,0E0,0E0,0E0,0E0],"parents":[2147483647,0,0,1,1,2,2,3,3,4,4,5,5,6,6,7,7,8,8,9,9,11,11,12,12,13,13,14,14,16,16,17,17,18,18,19,19,21,21,22,22,23,23,24,24,25,25,27,27,30,30,31,31,35,35,37,37,38,38,39,39,40,40,43,43,45,45,47,47,48,48],"right_children":[2,4,6,8,10,12,14,16,18,20,-1,22,24,26,28,-1,30,32,34,36,-1,38,40,42,44,46,-1,48,-1,-1,50,52,-1,-1,-1,54,-1,56,58,60,62,-1,-1,64,-1,66,-1,68,70,-1,-1,-1,-1,-1,-1,-1,-1,-1,-1,-1,-1,-1,-1,-1,-1,-1,-1,-1,-1,-1,-1],"split_conditions":[-8.7021106E-1,1.9031315E0,3.1094193E-3,6.0312283E-1,3.253463E0,1.262111E0,1.1678518E0,-1.3963643E-1,-2.9029417E-1,5.029986E-1,-2.9394755E-1,1.1780307E-1,-8.718418E-2,-6.727441E-2,-1.02024674E-1,-3E-1,-1.3915607E-1,-3.2955465E-1,1.2672037E0,4.325302E-1,-2.4522017E-1,4.2906817E-2,-8.8944894E-1,1.5403745E-1,-6.141489E-1,-7.549919E-2,-3E-1,1.6068145E0,-2.9313993E-1,3E-1,-1.9998458E-1,-1.5523426E-1,3E-1,-3E-1,1.9728214E-1,-6.015038E-1,-1.9698766E-1,-2.9040564E-2,-4.2794284E-1,-8.902731E-1,6.661617E-1,-2.938452E-1,3E-1,-1.0595273E-1,-2.4687685E-1,-6.289976E-1,3E-1,5.970916E-1,2.2499542E0,-7.926096E-2,-2.5089937E-1,3E-1,-2.5584215E-1,-1.758893E-1,3E-1,1.0797966E-2,-3E-1,-2.8464E-1,3E-1,-2.1166967E-1,3E-1,-2.7089015E-1,3.1591795E-2,-1.9419156E-1,3E-1,1.9569331E-1,-1.4080383E-1,-2.8464168E-2,3E-1,-2.8651246E-1,2.268215E-1],"split_indices":[5,0,2,6,0,4,3,2,1,1,0,4,2,0,5,0,2,1,0,4,0,4,3,5,5,0,0,3,0,0,1,2,0,0,0,3,0,4,0,3,5,0,0,0,0,1,0,0,3,0,0,0,0,0,0,0,0,0,0,0,0,0,0,0,0,0,0,0,0,0,0],"split_type":[0,0,0,0,0,0,0,0,0,0,0,0,0,0,0,0,0,0,0,0,0,0,0,0,0,0,0,0,0,0,0,0,0,0,0,0,0,0,0,0,0,0,0,0,0,0,0,0,0,0,0,0,0,0,0,0,0,0,0,0,0,0,0,0,0,0,0,0,0,0,0],"sum_hessian":[4.38269E3,2.1964551E2,4.1630444E3,1.9349126E2,2.6154251E1,3.9408445E3,2.221997E2,1.5456233E2,3.8928936E1,1.7544722E1,8.6095295E0,3.912645E3,2.8199373E1,1.6055208E2,6.164763E1,3.527595E1,1.1928638E2,2.075495E1,1.8173986E1,1.4372888E1,3.1718338E0,3.8377346E3,7.4910416E1,1.687498E1,1.1324391E1,1.1445546E2,4.6096615E1,4.8927933E1,1.2719696E1,1.3384452E0,1.1794793E2,1.5265751E1,5.489198E0,1.475479E1,3.4191961E0,1.2742463E1,1.6304246E0,3.8094504E3,2.8284256E1,3.5558908E0,7.135452E1,1.1550459E1,5.3245225E0,7.922251E0,3.4021401E0,1.1227097E2,2.184482E0,1.9062439E1,2.9865496E1,4.6548607E1,7.139932E1,7.0413632E0,8.224387E0,1.2191039E0,1.1523359E1,3.7886438E3,2.0806698E1,4.842567E0,2.3441689E1,1.7697506E0,1.7861402E0,5.9991653E1,1.136287E1,1.6179914E0,6.30426E0,1.1662317E1,1.0060866E2,9.466012E0,9.596426E0,1.0489454E1,1.937604E1],"tree_param":{"num_deleted":"0","num_feature":"7","num_nodes":"71","size_leaf_vector":"0"}},{"base_weights":[1.855851E-3,1.1137267E-1,-3.958047E-2,2.2733895E-1,-4.712151E-2,-3.3466804E-1,-1.5781444E-2,1.2044537E-2,3.1863657E-1,-1.6437209E-1,3.2306808E-1,-2.161517E-1,-1E0,2.3121272E-1,-4.1735303E-2,6.0087866E-1,-8.585527E-2,3.4437025E-1,-3E-1,-9.2374004E-2,-1E0,1.5231243E-1,1E0,-1E0,-1.3761228E-1,9.1057576E-2,-1E0,3.30133E-1,-9.5226735E-1,-7.168619E-1,-3.4056462E-2,-4.35386E-1,7.695122E-1,-5.226298E-2,-1E0,3.5483697E-1,-3E-1,-7.9501545E-1,-2.4973331E-2,-3E-1,-2.7142689E-2,3.3356124E-1,-8.503318E-1,-3E-1,1E0,-1E0,3E-1,1.5872233E-1,-5.5063546E-1,-2.0842586E-1,2.5474933E-1,-3.7607306E-1,-1E0,2.4583036E-2,6.260942E-1,-3E-1,1.3736121E-1,-9.937482E-1,5.872646E-1,-1.1786896E-1,2.5285605E-2,1.3363765E-1,-3E-1,2.606729E-1,-5.557864E-2,1.6648413E-1,-3.856872E-2,-1.3918308E-2,-3E-1,1.3294126E-1,6.434372E-2,3.790365E-2,-3E-1,4.2256523E-2,-8.138496E-2,2.473719E-1,-2.5026974E-1,1.4202347E-1,-2.9643145E-1,2.2778292E-1,-3E-1,3E-1,-1.9104806E-1,1.4301519E-1,-3E-1,-3E-1,6.560545E-2,-2.1885839E-1,7.001613E-2,-3E-1,1.7498408E-1,-8.104707E-2,-3E-1,4.6855967E-2,-2.8772575E-1,-7.185936E-2,2.2999544E-1,-3E-1,-6.741631E-2,3E-1,-2.54505E-1,-1.8787775E-2,-1.8133882E-1,2.582008E-5,1.4414552E-1],"categories":[],"categories_nodes":[],"categories_segments":[],"categories_sizes":[],"default_left":[false,false,false,false,false,false,false,false,false,false,false,false,false,false,false,false,false,false,false,false,false,false,false,false,false,false,false,false,false,false,false,false,false,false,false,false,false,false,false,false,false,false,false,false,false,false,false,false,false,false,false,false,false,false,false,false,false,false,false,false,false,false,false,false,false,false,false,false,false,false,false,false,false,false,false,false,false,false,false,false,false,false,false,false,false,false,false,false,false,false,false,false,false,false,false,false,false,false,false,false,false,false,false,false,false],"id":15,"left_children":[1,3,5,7,9,11,13,15,17,19,21,23,25,27,29,31,33,35,-1,37,39,41,43,45,47,49,51,53,55,57,59,61,63,65,67,69,-1,71,73,-1,75,77,79,-1,81,83,-1,85,87,-1,-1,89,91,93,95,-1,-1,97,99,101,103,-1,-1,-1,-1,-1,-1,-1,-1,-1,-1,-1,-1,-1,-1,-1,-1,-1,-1,-1,-1,-1,-1,-1,-1,-1,-1,-1,-1,-1,-1,-1,-1,-1,-1,-1,-1,-1,-1,-1,-1,-1,-1,-1,-1],"loss_changes":[1.9581621E1,2.1781246E1,2.1980406E1,1.3444195E1,2.1811821E1,2.4775604E1,1.8587288E1,1.1856144E1,2.2765469E1,2.5234821E1,1.9715775E1,1.69003E1,4.832279E0,3.25927E1,1.3575299E1,5.458205E0,7.0691376E0,8.342251E0,0E0,1.6797909E1,3.9016876E0,1.9535997E1,2.3083553E1,1.4615303E1,2.4292397E1,3.508671E0,3.699913E-1,2.3061882E1,5.2550354E0,1.1218504E1,1.290876E1,4.522118E0,2.588149E0,8.093489E0,1.4359493E0,5.7684975E0,0E0,1.1759527E1,1.3315573E1,0E0,4.248E0,1.7184237E1,9.620452E0,0E0,5.360607E0,7.536625E0,0E0,1.0374748E1,1.1789059E1,0E0,0E0,2.7612016E0,1.01703644E-1,1.6539099E1,1.595076E1,0E0,0E0,4.87751E0,1.0188479E1,2.8881313E1,1.7435926E1,0E0,0E0,0E0,0E0,0E0,0E0,0E0,0E0,0E0,0E0,0E0,0E0,0E0,0E0,0E0,0E0,0E0,0E0,0E0,0E0,0E0,0E0,0E0,0E0,0E0,0E0,0E0,0E0,0E0,0E0,0E0,0E0,0E0,0E0,0E0,0E0,0E0,0E0,0E0,0E0,0E0,0E0,0E0,0E0],"parents":[2147483647,0,0,1,1,2,2,3,3,4,4,5,5,6,6,7,7,8,8,9,9,10,10,11,11,12,12,13,13,14,14,15,15,16,16,17,17,19,19,20,20,21,21,22,22,23,23,24,24,25,25,26,26,27,27,28,28,29,29,30,30,31,31,32,32,33,33,34,34,35,35,37,37,38,38,40,40,41,41,42,42,44,44,45,45,47,47,48,48,51,51,52,52,53,53,54,54,57,57,58,58,59,59,60,60],"right_children":[2,4,6,8,10,12,14,16,18,20,22,24,26,28,30,32,34,36,-1,38,40,42,44,46,48,50,52,54,56,58,60,62,64,66,68,70,-1,72,74,-1,76,78,80,-1,82,84,-1,86,88,-1,-1,90,92,94,96,-1,-1,98,100,102,104,-1,-1,-1,-1,-1,-1,-1,-1,-1,-1,-1,-1,-1,-1,-1,-1,-1,-1,-1,-1,-1,-1,-1,-1,-1,-1,-1,-1,-1,-1,-1,-1,-1,-1,-1,-1,-1,-1,-1,-1,-1,-1,-1,-1],"split_conditions":[-7.4483144E-1,-8.4189194E-1,-6.2053114E-1,-3.7872997E-1,-3.5317993E-1,-6.242345E-1,-5.93639E-1,-9.262879E-1,-6.584674E-2,-3.6000863E-1,-7.551561E-1,-3.811605E-1,-3.796467E-1,-2.9833663E-1,-3.8347563E-1,-1.6438991E-1,-7.525248E-1,-3.0458868E-1,-3E-1,1.5403745E-1,-3.0418888E-2,-7.805851E-1,-1.2021748E-1,-4.5287494E-2,-3.7215728E-1,-1.2598568E-1,-7.197209E-1,-5.026651E-1,2.0240052E0,5.647532E-1,-7.424206E-1,-1.6811773E-1,-7.6973206E-1,-3.8257608E-1,-9.1442376E-1,-1.4424944E-1,-3E-1,-3.674184E-1,-5.5270475E-1,-3E-1,-2.4762595E-2,7.914616E-1,-7.8175545E-1,-3E-1,-2.7508149E-2,-1.02024674E-1,3E-1,-7.295085E-1,2.0240052E0,-2.0842586E-1,2.5474933E-1,-7.234456E-1,-9.1853714E-1,-5.763522E-1,-6.1536723E-1,-3E-1,1.3736121E-1,1.178286E0,5.970916E-1,-3.2020822E-1,1.9031315E0,1.3363765E-1,-3E-1,2.606729E-1,-5.557864E-2,1.6648413E-1,-3.856872E-2,-1.3918308E-2,-3E-1,1.3294126E-1,6.434372E-2,3.790365E-2,-3E-1,4.2256523E-2,-8.138496E-2,2.473719E-1,-2.5026974E-1,1.4202347E-1,-2.9643145E-1,2.2778292E-1,-3E-1,3E-1,-1.9104806E-1,1.4301519E-1,-3E-1,-3E-1,6.560545E-2,-2.1885839E-1,7.001613E-2,-3E-1,1.7498408E-1,-8.104707E-2,-3E-1,4.6855967E-2,-2.8772575E-1,-7.185936E-2,2.2999544E-1,-3E-1,-6.741631E-2,3E-1,-2.54505E-1,-1.8787775E-2,-1.8133882E-1,2.582008E-5,1.4414552E-1],"split_indices":[0,3,1,4,1,1,1,3,2,3,0,4,4,4,4,2,0,1,0,5,2,0,2,2,4,2,0,0,6,0,3,2,0,4,3,2,0,4,1,0,2,3,3,0,2,5,0,0,6,0,0,0,3,3,1,0,0,5,0,4,0,0,0,0,0,0,0,0,0,0,0,0,0,0,0,0,0,0,0,0,0,0,0,0,0,0,0,0,0,0,0,0,0,0,0,0,0,0,0,0,0,0,0,0,0],"split_type":[0,0,0,0,0,0,0,0,0,0,0,0,0,0,0,0,0,0,0,0,0,0,0,0,0,0,0,0,0,0,0,0,0,0,0,0,0,0,0,0,0,0,0,0,0,0,0,0,0,0,0,0,0,0,0,0,0,0,0,0,0,0,0,0,0,0,0,0,0,0,0,0,0,0,0,0,0,0,0,0,0,0,0,0,0,0,0,0,0,0,0,0,0,0,0,0,0,0,0,0,0,0,0,0,0],"sum_hessian":[4.3130864E3,1.18347E3,3.1296167E3,6.83174E2,5.002959E2,2.3259352E2,2.8970232E3,2.0377405E2,4.7939996E2,3.803752E2,1.199207E2,2.0924713E2,2.3346392E1,2.7471774E2,2.6223054E3,2.8317314E1,1.7545673E2,4.74334E2,5.0659437E0,3.54116E2,2.6259201E1,1.0494047E2,1.4980232E1,1.2482616E1,1.9676451E2,3.8994021E0,1.944699E1,2.5419232E2,2.052542E1,2.8451855E1,2.5938535E3,3.7418067E0,2.4575506E1,1.7215312E2,3.3036146E0,4.7210757E2,2.2264483E0,3.005036E1,3.2406564E2,2.2080183E1,4.1790185E0,8.94397E1,1.550077E1,2.9471805E0,1.20330515E1,9.957424E0,2.525193E0,1.1492452E2,8.184E1,1.9557507E0,1.9436514E0,2.5192525E0,