{"learner":{"attributes":{"best_iteration":"0","best_ntree_limit":"1"},"feature_names":[],"feature_types":[],"gradient_booster":{"model":{"gbtree_model_param":{"num_trees":"1","size_leaf_vector":"0"},"tree_info":[0],"trees":[{"base_weights":[-5.3446897E-4,-1E0,1E0,-1E0,9.1198105E-1,1E0,-7.8168386E-1,-6.9768184E-1,-2E-1,1E0,-1E0,1E0,-1.9118084E-1,-2.359432E-1,-1E0,5.196382E-1,-1E0,1E0,-2E-1,-2E-1,-1.1591168E-1,1E0,-4.5122457E-1,2.951162E-1,-1E0,3.1207275E-1,-7.7449036E-1,-4.9483198E-1,-2E-1,8.213728E-1,-9.968261E-1,-1E0,-3.737686E-1,1E0,-1.3936953E-1,-1.6945383E-1,7.970073E-2,1E0,-1.0344194E-1,-4.637636E-2,-1E0,4.8176113E-1,-1E0,-2.4525738E-1,-2E-1,5.5208296E-1,-7.575689E-1,-1E0,-4.620123E-1,-3.6644693E-2,-2E-1,2E-1,-2E-1,4.100802E-2,-2E-1,1.239448E-1,-2E-1,4.4754185E-2,-2E-1,2E-1,1.0807126E-1,2E-1,-1.9616424E-1,1.1399901E-1,-5.47346E-2,1.22843115E-2,-2E-1,-2E-1,1.0599957E-1,1.220531E-1,-1.0416442E-1,-1.0128545E-1,-2E-1,9.2150606E-2,-1.5801832E-1,1.2981874E-1,-2E-1,-6.028486E-3,-2E-1,-9.458376E-2,-2E-1,-1.8975314E-2,-1.996418E-1,-7.547931E-2,1.1079891E-1],"categories":[],"categories_nodes":[],"categories_segments":[],"categories_sizes":[],"default_left":[false,false,false,false,false,false,false,false,false,false,false,false,false,false,false,false,false,false,false,false,false,false,false,false,false,false,false,false,false,false,false,false,false,false,false,false,false,false,false,false,false,false,false,false,false,false,false,false,false,false,false,false,false,false,false,false,false,false,false,false,false,false,false,false,false,false,false,false,false,false,false,false,false,false,false,false,false,false,false,false,false,false,false,false,false],"id":0,"left_children":[1,3,5,7,9,11,13,15,-1,17,19,21,23,25,27,29,31,33,-1,-1,35,37,39,41,43,45,47,49,-1,51,53,55,57,59,-1,-1,-1,61,63,65,67,69,71,73,-1,75,77,79,81,83,-1,-1,-1,-1,-1,-1,-1,-1,-1,-1,-1,-1,-1,-1,-1,-1,-1,-1,-1,-1,-1,-1,-1,-1,-1,-1,-1,-1,-1,-1,-1,-1,-1,-1,-1],"loss_changes":[1.8089883E4,4.158252E2,2.0176436E3,2.4844727E1,6.3723953E1,4.9015527E2,1.6725131E2,2.1281364E2,0E0,1.3621979E1,2.6534195E0,2.5759668E2,1.7470157E2,1.0062413E2,6.9418945E0,4.8305107E1,8.557495E0,4.7585907E0,0E0,0E0,2.0961778E0,1.0488379E2,3.267221E1,6.8539024E1,7.1302032E0,4.388027E1,2.3056923E1,1.2283628E1,0E0,3.364807E1,4.3352203E0,8.639282E0,1.3211232E1,1.4344177E0,0E0,0E0,0E0,8.208008E1,1.0125257E1,8.270754E0,9.356606E0,2.7995949E1,3.2141495E-1,5.854127E0,0E0,2.5121906E1,6.1802826E0,1.0415039E0,2.2211151E1,4.8121347E0,0E0,0E0,0E0,0E0,0E0,0E0,0E0,0E0,0E0,0E0,0E0,0E0,0E0,0E0,0E0,0E0,0E0,0E0,0E0,0E0,0E0,0E0,0E0,0E0,0E0,0E0,0E0,0E0,0E0,0E0,0E0,0E0,0E0,0E0,0E0],"parents":[2147483647,0,0,1,1,2,2,3,3,4,4,5,5,6,6,7,7,9,9,10,10,11,11,12,12,13,13,14,14,15,15,16,16,17,17,20,20,21,21,22,22,23,23,24,24,25,25,26,26,27,27,29,29,30,30,31,31,32,32,33,33,37,37,38,38,39,39,40,40,41,41,42,42,43,43,45,45,46,46,47,47,48,48,49,49],"right_children":[2,4,6,8,10,12,14,16,-1,18,20,22,24,26,28,30,32,34,-1,-1,36,38,40,42,44,46,48,50,-1,52,54,56,58,60,-1,-1,-1,62,64,66,68,70,72,74,-1,76,78,80,82,84,-1,-1,-1,-1,-1,-1,-1,-1,-1,-1,-1,-1,-1,-1,-1,-1,-1,-1,-1,-1,-1,-1,-1,-1,-1,-1,-1,-1,-1,-1,-1,-1,-1,-1,-1],"split_conditions":[6.661617E-1,2.0240052E0,-3.5976946E-1,-8.746193E-1,-3.3032585E-2,-7.645762E-2,-1.1095954E-1,-3.6633718E-1,-2E-1,-2.7831793E-1,4.1009957E-1,-4.7523803E-1,-4.234033E-1,-4.0916386E-1,-7.474941E-1,-4.591323E-1,4.1009957E-1,2.4058004E-1,-2E-1,-2E-1,-2.8093737E-1,1.6066234E-1,-3.506578E-1,-3.5147652E-1,-3.809394E-1,-3.325565E-1,-3.757807E-1,-1.0149068E-2,-2E-1,-9.246549E-2,-9.288267E-1,-1.7168197E-1,-5.2117175E-1,-3.1709942E-1,-1.3936953E-1,-1.6945383E-1,7.970073E-2,-2.6667216E-1,-1.6338111E-1,3.0133199E-2,1.1759659E0,-5.31918E-1,-8.134989E-1,-6.073002E-1,-2E-1,1.9396135E-1,-7.580934E-1,-3.5317993E-1,-1.6131346E-1,-7.6177096E-1,-2E-1,2E-1,-2E-1,4.100802E-2,-2E-1,1.239448E-1,-2E-1,4.4754185E-2,-2E-1,2E-1,1.0807126E-1,2E-1,-1.9616424E-1,1.1399901E-1,-5.47346E-2,1.22843115E-2,-2E-1,-2E-1,1.0599957E-1,1.220531E-1,-1.0416442E-1,-1.0128545E-1,-2E-1,9.2150606E-2,-1.5801832E-1,1.2981874E-1,-2E-1,-6.028486E-3,-2E-1,-9.458376E-2,-2E-1,-1.8975314E-2,-1.996418E-1,-7.547931E-2,1.1079891E-1],"split_indices":[5,6,1,3,2,2,2,4,0,4,5,3,0,0,0,1,5,3,0,0,0,0,4,4,4,4,4,2,0,2,3,2,0,1,0,0,0,4,2,3,0,3,0,1,0,3,0,1,1,0,0,0,0,0,0,0,0,0,0,0,0,0,0,0,0,0,0,0,0,0,0,0,0,0,0,0,0,0,0,0,0,0,0,0,0],"split_type":[0,0,0,0,0,0,0,0,0,0,0,0,0,0,0,0,0,0,0,0,0,0,0,0,0,0,0,0,0,0,0,0,0,0,0,0,0,0,0,0,0,0,0,0,0,0,0,0,0,0,0,0,0,0,0,0,0,0,0,0,0,0,0,0,0,0,0,0,0,0,0,0,0,0,0,0,0,0,0,0,0,0,0,0,0],"sum_hessian":[1.1195E4,4.922067E3,6.2729326E3,4.8090454E3,1.13021545E2,5.6380186E3,6.349141E2,2.8177155E2,4.527274E3,1.00597336E2,1.242421E1,5.292869E3,3.451494E2,3.3912677E2,2.9578735E2,1.0277945E2,1.789921E2,9.8347336E1,2.25E0,8.75E0,3.6742096E0,5.171082E3,1.2178735E2,2.3875574E2,1.0639368E2,1.6829417E2,1.7083261E2,3.0121048E1,2.6566632E2,8.610524E1,1.667421E1,1.5562105E2,2.3371048E1,9.7347336E1,1E0,1.25E0,2.4242096E0,5.08512E3,8.596156E1,7.6688934E1,4.509842E1,2.1383153E2,2.492421E1,1.3272629E1,9.312105E1,1.3784734E2,3.0446838E1,5.852263E1,1.1230998E2,2.1871048E1,8.25E0,7.835524E1,7.75E0,2.6742096E0,1.4E1,2.6742096E0,1.5294684E2,1.4871048E1,8.5E0,8.682471E1,1.0522629E1,5.0649463E3,2.017421E1,1.6871048E1,6.9090515E1,6.9938934E1,6.75E0,4.167421E1,3.4242096E0,1.8988469E2,2.3946838E1,4.4242096E0,2.05E1,5.848419E0,7.4242096E0,1.3159734E2,6.25E0,8.598419E0,2.184842E1,6.348419E0,5.217421E1,6.7363144E1,4.494684E1,1.4098419E1,7.772629E0],"tree_param":{"num_deleted":"0","num_feature":"7","num_nodes":"85","size_leaf_vector":"0"}}]},"name":"gbtree"},"learner_model_param":{"base_score":"5E-1","num_class":"0","num_feature":"7"},"objective":{"name":"binary:logistic","reg_loss_param":{"scale_pos_weight":"1"}}},"version":[1,5,0]}